function [Y] = neural_function(X)
%NEURAL_FUNCTION 
% ===== NEURAL NETWORK CONSTANTS =====

% Input 1
x1_step1_xoffset = [-4.05762763830024;-2.59873765255088;-2.05004108913783;-2.21849937824747;-2.96033548643477;-2.26647009668044;-1.46344830219492;-1.43360882337744;-1.29737488481975;-1.42706952053602;-1.40805733833752;-1.38039408791183;-1.26638524296108;-1.48872770162161;-1.86931233521662;-2.02847138259205;-1.79129352831363;-1.01825591349221;-1.10543343601518;-1.53284647896189;-1.34485631264319;-1.59123380344648;-1.85360877423654;-3.17071731727846;-3.32218073462317;-2.61068332093961;-2.65842915756689;-3.64508823040806;-3.39459273651498;-2.90984646029252;-3.10663890547318;-3.44829930516933;-3.99502434046209;-3.91202299686825;-3.67149567501966;-2.57927880615327;-3.00412221612259;-2.37775151446436;-2.19855642213759;-1.60414838367691;-1.31126984519922;-1.51011574031277;-2.00688712867835;-1.81747669511226;-1.71168770954036;-1.94765240298836;-2.22484588019729;-1.36542494589466;-1.20217200747394;-1.29018524940257;-1.53899202488568;-1.27705379163561;-1.5445198219628;-1.48576359799892;-1.1013912841536;-2.40208725471448;-1.27774377747988;-1.33673161716771;-1.51513747076583;-1.94490267095187;-2.08834677585207;-1.82734178681765;-1.46733433506048;-1.61932634395002;-1.92236804438675;-2.4089978078748;-2.30173753835923;-1.51320053020325;-1.85075997513293;-2.13167088932755;-2.08005830454076;-2.16442676704049;-2.55666195831646;-3.05229821334568;-3.51756272612398;-4.04399678570671;-3.07856056523673;-3.01757074548357;-3.33221873823728;-2.35446775075918;-2.5464633856792;-2.55405516685023;-2.06208462554968;-2.62823672631389;-3.32503582802824;-2.14746811509514;-2.498920790707;-1.74642874172876;-2.15591007898686;-1.34494910853891;-1.21810718041164;-1.44908163580375;-1.42563569600969;-1.40798479193135;-1.20215720418392;-1.04232983929475;-1.0368857302353;-2.02899946485581;-2.00369155277372];
x1_step1_gain = [0.315228379523259;0.478478421687297;0.554136005228755;0.459839359584961;0.380176781336267;0.453992010786131;0.53056302168554;0.55701847403085;0.549294836330586;0.482927965832371;0.494432996759111;0.479276997120008;0.458968679247805;0.425580073570956;0.384509792856587;0.421885226638354;0.560583607537962;0.73607110856107;0.586270881805363;0.577554608565274;0.579590044483514;0.699216997011611;0.638102942950493;0.466201051205659;0.437991741331367;0.532385859022497;0.4871577876476;0.384969362950027;0.441120158626896;0.386467481633134;0.419330582372214;0.382534117953291;0.305991043885059;0.291001568161571;0.310587045745369;0.438239793323273;0.378527505581991;0.378280045917468;0.441832583245163;0.552395572954858;0.693843497199798;0.641502004996121;0.520213459454594;0.518529843970115;0.565288395192015;0.40955503182108;0.422649909728406;0.646481633620675;0.828586294125466;0.768230711380066;0.631317814901179;0.737511910773358;0.600191257502577;0.686500469887211;0.852096045606584;0.516993792515428;0.768553920919836;0.749409705364193;0.652714029356751;0.593526831153467;0.512129046621324;0.604554693020162;0.581244254127397;0.56686347703022;0.497079241161678;0.303865379372347;0.349115606304124;0.358900135520045;0.329496127453782;0.342511064412;0.328049336554082;0.358783295092067;0.357119936846578;0.315204355838288;0.376524911485901;0.347900245811406;0.398071899796952;0.389742076686824;0.368943843383013;0.495400607775737;0.530430548209742;0.500756876617197;0.532517368356903;0.543280635905561;0.375607376869483;0.455586818928082;0.515515035506466;0.55506589287166;0.547187627399766;0.733491866270294;0.6992785707351;0.623136467762055;0.546311260033247;0.469259017394642;0.413201375064597;0.498333482198603;0.501991625907771;0.333377124152917;0.310043082996866];
x1_step1_ymin = -1;

% Layer 1
b1 = [-1.4433634445246963;-1.2974476472539345;-1.4241214075367012;-1.4685311885610635;-1.5985839442570191;1.0224310552815636;-1.4466785236331727;1.3366620345627089;-1.0463387015750167;-1.1677586438717884;-0.9732194897616856;1.3303257345567443;-0.95637725333652146;-1.0629820317423111;-1.2754374325379743;-0.72914584094307089;-1.0506046954806834;-0.87948271346020879;0.92041312301071632;0.95476798684515596;-0.79535788514685457;1.2895804744610886;-1.1045846849281338;0.67664506978166561;0.56707973038825255;1.417404864888947;-0.71574662488751972;1.0553787996841104;-0.35512070352244607;-0.46913577135057632;0.8434838451662654;-0.46631059034491296;-0.086184711524343122;0.34232677489178487;-0.77932840307178464;0.62182320853474238;-0.65141380448104003;-0.53051652268459271;0.13460892391782114;-0.59280287527219788;-0.21072206560000425;0.9618661455084565;0.74316855220413158;-1.1348757621028591;-0.27561899204874968;-0.31836774632725634;0.073993188199812196;-0.5309303262154268;-0.17782526784377539;-0.51525242510999991;-0.22022994570054605;0.1750460265189184;-0.43415402146260573;-0.40406854078403853;-0.17765222771579181;0.52789673748606769;0.52294001723200401;-0.31775405278034352;-0.61904638828788872;0.73050932615939912;0.10217263912677504;-0.29745304478626616;-0.53918695593011889;0.97294980630781502;0.40571281010068733;0.30401674160248082;0.56681818193766365;1.1852964886926476;0.0071254525058525309;0.38923633368450511;0.51964908971711654;-0.60061823845909679;-1.0632049620199142;-0.4602180210055733;0.33878894936407039;0.48566734265814571;0.62385509249693505;1.2039522389020734;1.1518368263893368;1.1771119456019472;0.69509429430407521;0.69566137282068263;1.3558451597815659;1.2071885093857215;1.0622200477054384;1.0448678665879918;-1.1021662579110596;-0.93155981743299221;-0.69619929013304649;1.1835715928993176;0.48326838608348804;-1.1914311381891014;-1.1202796325028932;-1.364528315625545;1.1858775253635163;1.3663858852572135;-1.3803222715131853;-1.4956830376113688;1.2639091003365879;-1.3232352551210718;-1.408968592083373];
IW1_1 = [0.12573311076985128 0.047407630265009174 -0.078417196395889802 -0.027995912818005182 0.46803955768407379 -0.10187583615785696 -0.039489698464174314 0.11644268782447897 -0.087383285342567174 0.39894209228739536 -0.16865026493429275 -0.13113525819686406 -0.0052361943610171532 -0.16332775465824356 -0.087743783399054989 -0.055334008414339657 -0.32340283944594173 0.13511353647881713 -0.24225638769723221 -0.1636886485376918 0.078794930520123679 -0.24810780878381383 0.02946876431070615 0.25216131409588094 -0.20124661889272905 -0.10946786526895466 -0.27546485756722938 -0.26205184038928192 -0.24642909528859885 -0.27222285644083877 -0.10794185253600025 -0.31475801456911828 -0.14737839294730673 -0.062894770490990792 0.11583651819034453 0.099954193301269617 -0.023556802862017924 -0.16660280622758808 -0.25601451121648677 -0.15530923268200908 0.15899032467834134 -0.1769205955208587 -0.0069050310609166041 -0.18656520997589487 -0.02519823628313219 -0.28113864533020788 -0.20418850131509297 -0.1479698304499272 0.0074007062141363752 0.2868818150909197 0.22195644453747249 0.0010777231427987338 -0.2003432989481046 0.022138599270202682 -0.16765364810062 -0.023813795553221537 -0.0031522052278595992 0.0020312789386377483 0.025576845493776951 0.022326311261638237 -0.01633886225655988 -0.15745928390261196 -0.035309400377137173 0.0062253168066948028 -0.090143590516632677 0.1899532143712454 0.19590350187029321 0.072691281958461959 0.12689685946272572 0.25700612513403331 -0.13387761540139431 -0.13436771656960353 -0.16983103932429078 -0.0049064649899254915 -0.11929236059790965 -0.13437531884762483 -0.17910317639129916 -0.075063413625817324 0.11827738581415832 0.098616854596093761 0.10057757783292079 -0.049089270207577425 0.10291541237460809 0.015115546692360185 -0.010509475392422982 0.077468578950425387 0.12736786115302343 -0.21413326196645865 -0.22378706869895876 0.14919876408543664 -0.062822495630371539 -0.042436673015506118 0.22035422198507482 -0.38754375212702658 -0.14081347755368903 -0.056575755203986847 0.12812324159553715 -0.15680286185467182 0.27916002485445229;0.21677271302650908 0.031805851829582961 0.20445137400050153 -0.14813717467480453 -0.069619210927580569 0.0044821453973691305 0.031834821370211541 -0.51194626338732629 -0.02940596883045006 0.069760397717754483 -0.22416127541003453 0.48311972529179781 -0.15841092955225075 0.20086761032598846 -0.051899402735368055 0.203178004732567 0.33110255054096216 0.32214084197356863 0.19489846756921228 0.54217245021210236 0.13430166131643242 0.083117509966356723 0.074920127365645905 -0.30466534664211453 0.19715661473168847 0.4901272748258505 0.071284754684829782 0.28527751317148081 0.020407326814510705 0.60004347308144435 -0.084170399726360021 0.070426832445844606 0.23925370062247017 -0.20121805335858445 -0.34804617733863857 -0.055137614576707544 -0.34916670103981673 0.21972646502048249 -0.049409450868556345 0.28860502627650408 -0.041454018345615198 -0.35769126008460206 -0.59352959733450317 -0.60541000762493069 0.0045474631066124843 0.41484597375527033 0.6714223872765015 0.14544284661084025 0.30987554055507971 0.055854625881578315 -0.056993289510777201 0.003273899999571582 -0.051063396160212812 -0.42155140414575587 -0.30029987845595091 -0.39776739035546904 0.15948948210819078 0.33246864881349386 -0.50586617839516845 -0.27728378703333351 -0.024500841368517857 0.51009405192065671 -0.43930611147910409 -0.23528388603595948 -0.040275178019199581 -0.17338058423276145 -0.23508148252868397 -0.30195248145952497 0.2838296324565931 0.34385819442397231 0.067026117184877554 -0.14750882583865876 -0.32935982035233735 -0.50192782725452001 0.31712219124722468 0.37172673436238118 0.28365632319588824 -0.17837368814686272 -0.11489378781020403 -0.21599260276351667 -0.18950557527259174 -0.36082843852784435 0.016515236681680121 0.17947571152954031 0.48866364863343936 0.38222806833713796 0.12737013557870325 0.14398229324588205 -0.22677763038902415 0.14329338838973246 0.58099074814321561 -0.4999942630682756 -0.35578452666451232 -0.13295768367631289 0.27480295924392317 0.057064308635339567 -0.38512236880916945 -0.14052380770783801 -0.21725587456621281;0.25096548839956534 -0.029385470142911693 0.36662577749515968 0.18909130273238256 -0.13757897204369046 -0.10320195003159324 -0.0055495749552951501 -0.079882760568405736 0.18799554894101256 0.038407615274853854 -0.034662982322061262 -0.11740807950049187 -0.062354848113374065 0.21137434473435596 -0.056506321168498373 -0.14924153168974741 -0.22089096413005416 0.17029082800614612 0.27815191312504528 -0.10929194776777774 -0.23131131004801361 0.29514360432358283 -0.19530620540891608 -0.27602896276037087 0.050220955795887659 0.10633405163754829 0.079359713420153549 -0.02375931124704854 0.082813309884449612 0.24057749399997824 0.16855089257006306 0.062629955648975097 -0.11713660357004607 0.012169681258669716 0.27956567216326034 0.01801659279878088 -0.039425639582044113 -0.089634933274974682 -0.030458371872303276 0.22556065865501551 0.24565479705374335 -0.2248427744781803 0.11981269517415158 0.28374668580201412 -0.18552406263952331 0.2152176907235821 -0.091758445870691235 -0.25878877240054998 0.15248844598236927 0.2423897714026611 -0.17302841827556956 0.1350343680641477 -0.023352712684761093 0.057668974439456566 0.059075121354699861 -0.25301098718311849 0.22758206800741276 0.26618799847216157 0.30754832328026799 0.31259652097262014 -0.051375130681359044 0.20354016359954441 0.38250195481374383 0.0148388302460843 0.10591146618706904 0.078910052705215242 0.22082481093355866 0.059657926878998499 0.13794498889204898 -0.038648662008776119 0.12905890911987086 0.18607423726729971 0.034293357093801179 -0.060515913281100717 0.077824287459928809 0.027771173617190906 -0.22685557911326917 -0.20380282191274712 -0.0019903819783342463 0.19191370322034765 -0.20113304350563999 -0.068044662287603475 0.1547748011176506 -0.10937429213750283 -0.15861171957029302 -0.19019282887010619 -0.054276561020178027 -0.0078376057832263372 -0.20172090568448275 0.1985789818496061 -0.21070097953667874 0.098878920755345018 -0.019332116247533289 0.12494002484590536 -0.034832302709077417 -0.058990370655093972 0.046598841170393701 0.010914014516580577 0.047658385119235772;0.16694230300038793 -0.12451472063450239 -0.21280139204532822 -0.11124268334915491 -0.064595130269407858 0.10093696563639852 0.066576203779031617 -0.071018538230805978 0.15606536846270092 -0.20215053798804 0.24334281479886255 0.11844283638012221 -0.22247382017729117 0.1942965652277068 -0.12533782666163859 0.1912351832442454 0.049562148261562841 -0.24211180125672038 -0.13257000611750477 0.070968685496125672 0.24655148469876534 -0.17889760202061578 -0.1042982245931813 0.2208801996561448 -0.15167320950964827 -0.01584459247871825 -0.051694681791039795 -0.1845373731551283 0.0048327230776931129 -0.12418733551170025 -0.093965143259238243 0.12946136396685509 0.21767013444722608 -0.089976840303351138 -0.17908600665696398 -0.035847304463673277 -0.09549705811942559 -0.28165951001861911 0.27254897446515103 -0.060397997117799342 -0.038864630112028065 -0.10872711460912318 0.14970523828284052 -0.13318973484393851 0.22494409786818997 -0.19292330541938052 -0.19502884890596739 0.18172729645821903 0.22107316748320163 0.33705164522639208 0.1687423242905399 -0.22392496238902176 -0.028848660678259953 0.05247431331568185 -0.16904238371500174 -0.059388200308523029 -0.045941818667847314 0.17942702276234712 -0.17856595814365861 0.12539013357984985 -0.21637546004102398 -0.13826662235443837 -0.20713678813287711 -0.031764438666377411 -0.14179226487279192 -0.19352132737531921 -0.17527952297930965 -0.14342413639476731 0.26563428822964397 -0.18618848816713632 -0.10322431150162076 -0.0034172892849082884 -0.15777227432769322 -0.076030827658744526 -0.18314294086261174 -0.17877552946391989 -0.20073363987557985 -0.03933068730432529 -0.070820239949037897 0.093821238717001543 0.14391688592889362 -0.014057261372208092 0.056849226579785188 0.013541080224319317 0.0093371593135382208 -0.090617545605893635 0.1455728384692983 0.059151615828393733 -0.19651733527159532 -0.21379546196842525 -0.033586144522980574 -0.053343520093647949 0.04199848038540327 0.14407049073808847 -0.10753071055819069 0.14429152622990671 0.1562185120194354 0.11655174494044152 0.15741550959334213;-0.21292891530040736 -0.073232853960510436 0.013024643611271057 -0.20106846229193315 0.10641385465692096 0.0078113090589049528 0.01565131993444329 0.055972171955830097 -0.010186294132935758 0.027233881258381436 -0.18117029515266211 0.31051599974786903 0.18290228707817924 -0.29669878204239697 0.10468990291410685 -0.043341998547253249 0.14977391713461313 0.021871734030010415 0.28681437459199743 0.15997040518281316 0.0024985089225795301 0.38254462304919562 0.22270505601221091 0.097206879145412844 0.19755465484658169 0.066021940170959595 0.25521930402761739 -0.050582036573949031 -0.095865724554010989 0.027027664941863205 0.016018744583255015 0.024568226374378513 -0.32664253484739242 -0.070867407566227864 -0.2263907842487097 0.048639929303910034 -0.20960659820348906 0.087578309088600079 0.03064104246462385 0.03661764812166126 0.30386275030588561 -0.02730134185277943 0.21866128200168769 0.074533209834273986 0.12711792057439802 0.42982945960948038 0.27761595804217198 0.27934899374705968 0.17057238885970674 0.088919536373459201 0.15472357348554472 0.005821757181670148 0.10715558454530714 0.20368478684450225 0.20646189034674986 0.0098757734931814584 -0.034365732186845688 -0.2558789332985219 -0.16311056502021429 -0.1302906721063759 -0.17022098310848066 -0.19734257496736041 -0.44051245557043156 -0.3434606904283572 0.050016144342726707 -0.24850400858446153 -0.11580505285611284 -0.12494042166056281 -0.12177562015809783 -0.066475327361353503 0.00036340918981279946 0.071253482347107711 -0.14903366920667602 0.13088177728265704 -0.19814159313170382 -0.062422319485142472 0.29218521595634611 0.16066468863277261 -0.053753794039774566 0.0095258361786590209 0.098507368689835506 0.099625994884310065 0.15104991429580783 0.061570869136427786 -0.12155894459583955 0.21299636934725374 -0.02271105102555885 -0.071749295305871319 0.020605680908830477 0.11148155495255932 0.14603041343891138 0.078718412292726747 0.060066293500064906 0.013336497521465984 -0.17690647675478449 -0.072071984157742713 0.023026457857483723 -0.1920575396339374 -0.20939035163324776;-0.25008784336652018 -0.051028703906964103 -0.49536505164170996 -0.40506162599245377 -0.21878944846353743 0.45672860120958636 -0.2345315496044689 0.23024016645239831 0.24071589540634772 0.29973758738192258 0.056338559478026143 -0.23447497487286936 -0.49363379557955733 -0.22434314793848326 -0.16376968107598225 -0.3196401050879758 -0.23179281787358896 -0.020022304211863198 0.72230917608123557 -0.01752263707413057 0.10538482892015112 -0.1935276164760914 -0.033271262811099253 -0.24630323868463111 -0.17494021434919138 -0.46881052167373255 -0.2259361336366093 0.12109295576814583 -0.1747358977826855 0.15757279630277565 -0.20639916513235348 0.54791919971540692 0.53089944753863749 -0.15879270145770008 0.7801609328096667 -0.67814244543549917 -0.21423880093022243 -0.039674991267682175 0.22063878078289817 0.14660966436211909 -0.43968610953162446 -0.14738650976800419 0.12521681653985486 -0.23179740558691375 0.020423535799526354 -0.32203337020602441 -0.72029512756473835 -0.18296642895367596 0.17818516389867933 -0.064061664400967305 0.15452107051361116 -0.37160429124804178 -0.019416694090539095 0.10726561053852426 -0.52393501814147281 -0.049418385026852085 -0.22497377088754658 -0.28610617268596039 -0.41656116697546713 0.026437068210197229 -0.10282246974397415 -0.10645380000144558 -0.31247986188892235 -0.37914600744395816 -0.52225157591984728 0.15685439153316072 -0.046706813770555147 -0.31454625718503831 -0.0082196248024070592 -0.14685934734549899 0.2507562631269083 -0.58210645471248623 0.21211804575465157 0.28630137396739702 -0.13408814653771581 0.30496762293138563 0.22876786080345929 0.09517446133488229 -0.3022437586518838 -0.42330101756787542 0.073673092320343053 0.028425559711257119 -0.18624456936945483 0.14877353228369658 0.27657725101490171 0.29975839679483018 0.26782431959082159 0.14042427223656853 0.46223191444709238 -0.23099251157173456 0.244509388671306 -0.063492129160801963 -0.020652136252049494 -0.71816034731915146 0.28366909064576218 0.24704396356100738 0.55332684335778126 0.21093059660457486 0.76034919298917969;0.37329976800947329 -0.045210162713100563 -0.011111232003336712 -0.062495016657203376 -0.030667964994260138 -0.25184267544696359 -0.42142998629880662 -0.0079568587193364904 -0.2236530138320906 0.17466139316935375 0.14877133217622374 0.30136091407820514 0.16312138219440969 0.21850459090975549 -0.12613203146544652 -0.23400811816135611 -0.34269001927402126 0.081665776211100188 -0.11648664700715158 -0.28865235314994608 -0.23869897161864273 -0.21493971761663008 -0.34973314196819155 0.20718105829260702 0.052577826346593609 -0.26224091783785242 0.16097346559939713 0.45771869880942739 -0.036755280531273485 -0.011776193309888203 0.4888223087121919 -0.10446886732153474 -0.5478103124639252 -0.24167232242185394 0.33760000236746335 -0.25043264101144469 0.028387164860766784 -0.30704425999225604 -0.19408510239047067 0.34854037967490303 0.10582759436246483 0.27044486479527308 0.38645552724401205 -0.0095079801024048095 -0.10061224067849053 0.036983767075561828 -0.1295099121556641 -0.24023231761496155 0.020215753101629277 0.011094791844540187 0.02346858127658822 -0.021437521847551336 0.0012670217669703311 0.3275123910083132 -0.16987646556173225 0.1464760707634406 0.43602385668786381 0.45876434002586758 -0.093211247827913013 -0.19534593619095258 0.049393287493013679 0.029624488928720001 0.0010231309623992234 0.15984891206565646 0.26425718534743464 -0.0033416478038796431 0.14153557876255898 -0.14023321513071388 -0.1836599046989619 -0.38398185167032162 -0.29418268178672641 -0.57764326338893346 0.30598001981547401 0.48524463129320322 -0.38905518543418849 -0.15307641470243005 -0.029626779049744052 -0.16872868489703063 -0.12682751566428335 -0.31996776635422658 -0.23016448535286402 -0.27973263844847085 -0.26333377729412621 0.11786499517088744 0.0095344451658272433 -0.1314396757380174 -0.095532251242945676 -0.41177228381173336 -0.052197421637714972 0.098729348960769334 -0.22738330107816931 0.45098142234981092 -0.16391726568625337 0.23479906073730461 0.29430656850063897 -0.17594073260689355 0.22647661846015421 0.3094022309615157 -0.17673443995102145;-0.17453386801460344 -0.042555526234026586 0.19475239361360033 -0.13219730291451298 -0.29761046781902001 -0.039682682927554377 0.27788363169310204 0.57911994078432283 0.44380157749112031 0.44320691430633435 0.18969338202973396 0.59068281295228597 -0.28505300744709267 0.30895408422725779 0.065829413159344027 -0.5371929329830174 -0.48223944696451143 -0.08896323131619148 -0.30452459964746881 0.27730941253134478 -0.11555769040974344 0.3070685106145426 0.41240262189901777 -0.49668247390792097 0.57499283103420162 -0.080378510317457061 -0.50576020472022953 -0.15013491642453677 -0.063888728139103915 -0.45859632429610442 -0.86438336504696189 -0.6864660524172892 -0.30886393325769063 -0.61015160022650383 -0.49429538691823321 -0.2034655258710831 0.041390377302857211 0.15667615788227179 0.023483707464562131 -0.42973490943418691 -0.5430309600019334 -0.086167196195838985 -0.66963045109899966 -0.011466762449074068 0.34910113361042205 0.3576857047075459 0.35856657672818421 0.11407665912666187 0.064993771736466976 -0.42426946446593866 -0.21114444299707025 0.02059661952367739 0.17499554335742079 0.31136876006821568 0.18420983044160658 0.56259036745485724 0.42967464562066948 0.56131713015885953 0.554214953743419 0.039276225698343978 0.296078816007461 0.074163625894080751 0.48763322676173299 -0.11582339815304057 0.37528430638185828 -0.091885264213574791 0.33188002776277425 0.33626983854855103 0.49268017258866159 0.40920628473602794 -0.055808508298447898 0.14391299418121578 0.13538601047201515 -0.17680223168496048 0.60100474379096602 0.23952406409956015 0.5651980302099866 0.37965181319290642 0.16038930632676118 0.2654452041062057 0.23245965881021935 -0.65847841113065253 0.014211240860192029 0.20477287822514612 0.31019735050703739 -0.060539606124158304 -0.032564857238417871 0.066078904622704104 0.065972143860033389 0.15780808697871368 -0.16108123404882163 -0.020691359282006983 -0.24978447728427317 -0.32420531014725801 0.11146312494871334 0.035484816902051811 -0.12428163036254973 0.24521508590371946 0.36427253234540996;0.12372002673839066 -0.22930351898870549 0.085420912896790352 0.14528463546681916 -0.25308772999643642 -0.014358962460922262 0.059235194400369291 0.2319439150934455 -0.20138620376848324 -0.19600034373653585 0.41938838401795608 -0.28494216799465139 -0.048002379916357474 -0.12030711104899749 0.09428103251854833 0.13100906196557593 -0.25430346402182219 -0.22893760974872918 -0.072593977756399003 0.14345036344601622 0.00072898293479347134 -0.20780375758859485 0.24496029266994956 -0.19998626167024919 -0.34717086881846304 -0.18763175136496552 0.42667192198219173 0.2374925233312038 0.37809767623072327 -0.12110220991330947 -0.25005027656197754 -0.13585176508526325 -0.029451209506109795 -0.033586143369644147 0.065068465094781161 -0.14220620078705129 -0.12929628340618418 -0.040118781122367983 -0.030794928367159524 0.019932961778387444 -0.34946661000584439 0.19014979590779515 0.032612476680300484 -0.13367520448595113 -0.24056480640188871 -0.23119841888362791 0.19210059226642007 0.21127772418616611 0.089074159328424926 -0.030217255355986829 -0.097658090758192817 0.091023291408404261 0.067976141910228577 0.13211447932722875 -0.10909339142086184 0.15764843659606334 0.37148986496085573 -0.054313209411315011 -0.28557836601994857 -0.22860102104829605 0.17985343352486605 -0.041526433293211804 0.2819885529609672 0.25235842571341494 0.22536402713632558 0.011438075277741575 -0.089455054440364029 0.15828810498665927 -0.099568208832176833 -0.047040635029775076 -0.080179860153835797 0.21839948471095694 0.048362530482500707 0.040558487475768269 -0.068090243836012171 0.062737218477547638 -0.0067877480738700799 -0.109392681410223 0.10967255882733359 -0.38667058004694166 -0.033521405574147685 0.060711004402906582 0.15500000943028638 -0.08921260403626588 -0.20534097523623018 -0.31063188681533505 -0.11632855176498691 0.19447524781494049 0.20981105507030715 -0.0579787692678762 -0.20684273180219037 0.061945308545418902 0.093605603258612641 0.14538897891247454 -0.027961838187015912 -0.022019837197153148 -0.48402926152861303 -0.20766410901393584 0.59414071727885709;0.061596516193688645 -0.16528001511756618 -0.11642296382118789 -0.31506495869313811 0.16759610129188302 -0.29013836433886331 -0.53317778162497942 0.10390325222788177 0.51339686446946853 0.016712974586090609 -0.058361177353850019 0.24013279651022226 -0.093957933329115534 -0.2521210894879316 -0.30495002497475571 0.057292093971543022 -0.082729785084988808 -0.17768234027375132 -0.20410493515088338 -0.47806472084616058 -0.21991507911078323 -0.1659727890839944 -0.16005451839638329 0.27135024789955198 0.031241067745268886 0.060893242075173382 0.13653582711929774 0.21501932493395626 -0.075374586347648181 0.029732702226425947 -0.27331144306740196 -0.48627433044080198 -0.095446979707748875 0.1302860760087815 0.78658716256358319 -0.28576845098064579 -0.26603337961763196 -0.15887349777075968 -0.11456883914283744 -0.19490566918992278 -0.062371718180392388 0.254630293490129 -0.18657992837051757 0.31591359215296944 0.54869142210499677 -0.3012622191042128 0.25982003259372999 0.10602966706467273 -0.21333852967205974 0.017237547574260013 0.19552883130167109 0.33593294516226191 -0.73373752227057765 -0.38384606222811357 -0.26564499933383379 0.38886721263191998 0.39713907301274565 0.65679213353810806 -0.16553082810156639 -0.39510754478798049 -0.0076596362954293867 0.15595786779276929 0.099767978571147817 0.42780273579007189 -0.14729573658728423 0.21962163258244211 0.02202970525268462 0.35568151895566091 0.74098994832327625 0.4881500977849999 0.23932052727940756 -0.41066526454833763 0.14995058962753499 -0.11833522262592666 0.0012125700310924928 0.39073424218343661 -0.084187222862476846 0.05248034794591732 -0.038054695785975104 -0.19344129004897637 -0.43120462693891271 -0.28088919931540252 -0.048259904717648412 0.17976954221167693 0.48103028148052224 -0.017471494300329609 0.13452457540142315 -0.16452581758740978 -0.088844337690027905 -0.35067316093515882 -0.5839881233239963 -0.070643669118498814 -0.069056151946623109 0.18450695949254189 0.34239044681341219 -0.037322682572626997 -0.17154692558655429 0.22861098157036827 0.082477918421810945;-0.062861239440341082 0.38462530759131286 0.42914151534017431 -0.39304917385649529 -0.38401165289984673 -0.39587618853996187 -0.058244589949376514 -0.002900963934233905 0.17288363616756108 0.043434062873756549 0.23020954028208596 0.067316545594635374 -0.19317004496462545 0.13429287185626032 -0.17283053194228143 0.36946578859647528 0.12792094902658585 0.61793992007656351 0.21161548288439805 -0.16567108561098626 0.054485785385841964 0.18128708315530823 0.53979019841333065 -0.0062546345280870899 0.062549993500172582 -0.27826717734695139 -0.15097226564381433 -0.3545941768407499 -0.22848797377951074 -0.38520348048100145 -0.71352368869544736 -0.35296322089501336 0.049951651339034564 -0.5383343193304162 0.37619918937197616 0.6426928378676865 -0.16215364406164773 0.16268681844282731 0.1447550996087848 0.23687609113872482 0.36759355990619219 -0.053911070486352103 -0.2399048253465082 0.33219306738940174 -0.70779766929196564 -0.48329159022479606 0.30476576900732683 0.037662741804519131 0.16872121514606891 0.03757051707101642 -0.093530885473457032 0.53419446818268845 0.30385668005048283 0.13349502335456506 0.26547846482763726 0.051124991908219258 -0.1184770810591898 0.31888922512455742 -0.0005700068264707786 0.020357846915834678 -0.28444399520643227 0.12149921947184074 0.10734015871444452 -0.21408717849930503 -0.27204426241325824 0.41160492097214929 0.52983840223495926 0.15200003207690471 -0.43427015371295435 0.001079236313279261 -0.17782267334552077 -0.13648507028195375 -0.11051647718221123 -0.15561352710993009 0.13069119997478987 -0.073929311477143031 -0.059502201271857999 0.3215037412361389 0.41706661011051066 -0.42281892936235188 0.089508188883789253 -0.15655609993533845 -0.15676695899121554 0.41914642855068934 0.071724115492451446 0.17144193013408163 -0.044267418625457737 -0.20158176801089694 -0.043065066324219067 0.40418702327348927 -0.0050952836409486058 -0.097850595523494621 0.29629180320170356 -0.039829840200105805 -0.20863166340454908 -0.19929958859690255 0.12732978369604572 0.068556834276130602 -0.11851601645769341;0.37871585879969716 0.085738117566317593 -0.30985940800182565 -0.032055498434999982 -0.83411249582616853 -0.47489686653079755 -0.057331337486051195 0.36018645690264961 -0.12038095478240872 0.80760612788180497 0.30224198973012406 -0.31344524949163094 0.042508044608751669 -0.40153764889933841 -0.54702387102044847 0.29023154750547192 0.12430582890124817 -0.43433924932957646 0.11589584864741891 -0.23233308327008256 0.13591575453877872 -0.090609954930270423 -0.55319998361721578 0.085055675649902046 -0.33341054678713977 -0.96529778176589398 -0.60139062428195789 -0.21745108321814952 0.21565101988081556 0.21563802335633403 0.16575750944407075 -0.26860788290589194 -0.13614185881944946 0.33842491682656689 0.48540487461413256 -0.26208810902579927 0.079789312336528737 0.019797017249375208 0.17150821274177103 0.40507249886490182 -0.15705342009614492 0.40426417769597978 0.66681175937142256 0.061442765641943661 0.41892835996864108 -0.41020333851778407 0.091156640309312073 0.28963734828118515 -0.098969229728801206 -0.13635990820732352 -0.28944795186966454 0.25274270718143826 -0.1361820214079825 0.37722405322512143 0.1076171191335194 -0.16149606648476592 0.083344167350985265 0.044257546805985787 0.037545890200169692 0.33855722535125132 -0.23147122947990986 -0.43974952180426391 0.56410695209536921 0.15624658001181441 0.22171894764530237 0.49937959660413656 0.47260690286913082 0.34233839693198426 -0.19588529475281413 0.38186675758115007 0.077707290826339925 -0.65562801511091751 -0.22601403342592222 -0.52523452990084329 -0.23390166657812667 -0.21864916616402155 0.35793463429295191 -0.51013254859263135 -0.371301627398195 0.12493648703641844 0.11672759474474302 -0.30269876019839237 0.051291343323294103 0.063059861716743715 0.36510603700968991 -0.10383937001835761 -0.10216171573452837 0.094375822528336706 -0.34123062783797337 -0.249884860781101 0.076058517608429993 0.41563917607345907 -0.14129041307487972 0.10558129068476738 -0.65054817530850662 -0.04563526018239715 -0.28496089570737393 -0.35823418495609338 -0.30383726055022386;0.32657587931017978 0.32990202241593747 0.3231040407291339 -0.12356352813790519 -0.12605713270898905 -0.24747219607073956 -0.36998464581803248 -0.49874939628839648 -0.51410708432603014 -0.55925262842750001 -0.19469684305285589 -0.16196588936845185 0.37690958108669392 0.36470458611077466 -0.2621970261063486 -0.06964090120778671 -0.4402767689367062 0.037882849565498436 -0.014480450271428941 -0.17101436762988098 0.024949872422524583 0.17596671685238208 0.38299275071069944 0.18838346877501561 0.15915548811554431 0.28799066996003109 0.079583888672769595 -0.090305466111941055 -0.19626350349193158 -0.60001629940156875 -0.2536957290123566 0.45565533201529507 0.38276172567482408 -0.1321613977616532 0.057421131568111523 -0.40450289403300876 -0.49767722234250844 -0.86339616865320923 -0.087006098920644773 -0.017074952972256537 0.24881794786269695 -0.37537254800038033 0.20439625986051857 0.35962735279157343 0.48906078770393296 0.84448284110249472 0.14608868588482457 0.13698250387306937 -0.41569279155115157 0.37447013830768311 -0.18867684551823985 -0.1393711166895312 0.73098729588450084 0.41623292907862597 0.44730418274108708 0.10096208945283013 0.50558823732397495 0.53470661360317595 0.32762945345865485 0.5325271175827897 0.099335351232465369 -0.21266744330106155 -0.25448119644626405 0.13433311260600805 0.10981129779915311 -0.049379474917413298 0.50419326575588697 0.49502549140035723 0.45984690549169044 0.5163040576812995 -0.24533876367458601 -0.18853349352419321 -0.18747724323920192 -0.53796373678276244 0.097248801597177692 -0.26369267402031155 0.21939948418046643 -0.070071719355205536 0.20818894714416192 -0.11714297898196752 -0.14426596346971204 0.38630274313503643 -0.45168462533829501 -0.14266204169736871 0.049125099056275684 0.079510027748085521 -0.020002921845951906 0.26341751308976796 -0.19994023044125142 -0.0032998637161421665 -0.56996639260166249 -0.16521658009253778 -0.021558533824759564 0.49431889130791556 -0.027774233153172935 0.23883125548642656 -0.10993850560758266 -0.20817257653510862 0.25585140495557024;0.13455992898195099 0.42663805435434621 0.27859065582060821 -0.20161822915780808 0.55725059047683978 0.18239349916309125 0.39292847208312498 0.58592180008167505 -0.2323856272590758 -0.63153506904500956 -0.34632963024076363 -0.49348980894097427 -0.22767727449638678 -0.54227621962948835 -0.36479432284423896 0.26057449655015547 0.19250883442078695 0.42038006715844178 -0.08783559512657578 -0.12673412528285735 -0.39554370930971183 0.1724772215999531 -0.41265604234022768 -0.083854707625644828 0.33743984761418133 0.2513507410729392 0.47666543126687455 0.072900523442525317 0.07320646969441684 0.58758915401769352 0.011320183672648081 -0.37936924579567965 0.23365416722587556 -0.0059395350979969293 0.4941722243132507 -0.053145277341177417 -0.16852753254674926 0.18119799331470587 -0.051183095466390965 0.17096879264582612 -0.14944590888211007 -0.34727653347804799 0.40590772402318337 -0.13342906892981107 -0.51335321794463518 -0.10794714887556371 0.11667170385037534 -0.10392682746893341 -0.12552693178631433 -0.15044161900076283 0.54198006888322836 0.10148313335894972 0.14469796109047578 -0.1251980556126257 0.28099115847342432 0.048429868960993834 -0.46200886348206432 -0.09684291389355329 -0.24286754605508903 0.31005783081243438 0.20612253980030104 0.63626755572174543 0.37932801808680078 -0.062483350392808029 0.65029708258257146 0.41503533071012633 0.40916398496820361 -0.19018808789554681 0.51382247912523937 -0.0090166025362060746 -0.051723207867636414 -0.58323465183455492 0.23007817917826126 -0.45248900625300253 -0.70412558847638484 -0.48284132463669049 -0.56614426630872294 0.53954650229170298 -0.3957138236293159 -0.5187612735971413 -0.22491245226383844 -0.26677177549100928 0.20221210637439724 0.38842474679316569 -0.088336301719593141 -0.15663271383229044 -0.46529908308807227 -0.19716812732538136 0.075216259546664749 0.47853658764834112 0.1670603278685181 0.16087049260481523 0.11863761598631598 0.46877095913149608 0.46737341855876091 0.92008773783126774 0.56787177026556201 0.32108061082642397 -0.041133877986960651;0.22620561848960952 -0.53462350146790194 -0.14809764103219339 -0.1691982811817484 -1.1504597855236522 -0.69727996745166687 0.23637131406321446 0.18118486043628845 0.29829030131679529 0.69753552082712367 0.47191759143306455 0.83957834552086075 0.15972953177686572 -0.12441953605607756 -0.14566544269218595 -0.1227347742562218 -0.0013899144805314921 -0.070852166633914665 0.21464063418314988 0.36123543245652767 0.12826267942811059 -0.12574337321717446 -0.081305358769535208 0.18873158018590785 0.28050914357292089 0.77668283760261625 -0.18528877814375988 -0.18054083865145049 -0.50096263423983489 -0.046244822141755015 -0.055854534899080419 0.41634638808168517 0.24969196230052582 0.19153192841478678 0.43083367460822725 0.39778141736400124 0.63084131672423149 0.06282957337172751 0.073292098120648491 -0.43918190314608008 -0.305206500290718 0.026223183084417741 -0.72356848897975601 -0.64246918029161415 -0.47460441335125669 -0.38151713053461067 -0.67194665635571627 -0.26162696592378687 -0.26166662092318466 -0.054931821667626848 0.39249154596962993 0.35438732565024772 0.19263343689275789 -0.13240638659477968 -0.54908095748673413 0.13728642562492921 -0.55276083541702592 -0.41889685265201193 -0.039004045137126395 -0.042550705504084435 -0.16147979420510378 -0.12428325620513209 0.27609175376200196 -0.41494846065102103 -0.031158762894974986 -0.31215719819526944 -0.36457502670387404 0.3736548468593634 -0.46357137370798129 -0.78884900777578548 -1.1085620397430413 -0.62001769986309896 0.19717959088334461 -0.28327777832711276 -0.51526310218800708 -0.11562790996238892 -0.16177260137580407 0.089878055227014864 1.1064124864132054 -0.4455827080642043 -0.23665550401820809 -0.44024868956896568 0.21433450237680113 -0.04170152350158312 0.17673507663114763 0.0092880203549621371 0.59384774549423869 -0.2054259243541347 0.22232805125109018 0.55452557561176186 0.39079687930973112 0.53230154976160693 0.5589420569982505 0.39194579925626755 -0.44497430249428299 0.33902979234766434 -0.69171530528935377 -0.57705265326701038 -0.2467834167007974;0.10498605827757761 0.22759670199494636 -0.65254632514371391 -0.24976794137008215 -0.21171189790215772 -0.20110792441647943 0.058516067402579169 0.15199059516811064 -0.018196322401770507 0.18263085455941933 -0.14394503678845369 -0.20479378939682161 0.20098092710918142 -0.28016066238787096 -0.069872548478849772 0.20825109126275393 0.24498208484488701 -0.27439401876474767 0.076663923239243453 -0.42623084010821854 -0.23406975483836523 0.062067960859859619 0.054190283844810526 -0.038068070943329285 -0.46938376619848615 0.052610974139605166 0.024921024324389654 -0.36189898669040793 0.47749021737480829 -0.059219772229679155 -0.25591041273145765 -0.033368056643871206 0.46716337832298305 0.1020132514670197 -0.17488145424594193 0.40630883178824839 0.013149074347818951 -0.22392675312879404 0.4790253393703644 0.2888554062665275 -0.038558284834518453 -0.14446555759265078 0.16880764565895839 -0.23528865559678411 -0.094515255461279896 0.03316515782327225 -0.28723488133310859 0.066146516930468996 -0.34263762898631683 0.56932690771536676 -0.14401055876526919 0.93027114179009884 -0.051647687806202089 0.55893907513780072 0.28466144745853006 -0.19241444854368828 -0.0052600000808621372 0.28001103851540587 0.01625335713894361 0.28030547364640268 0.037797598297723486 -0.38024976227206986 0.32362686083089665 0.30899514854394627 0.015972831723011782 0.56843540835430295 0.092237516252799634 -0.15166481495634479 0.81368467263058286 0.32825853916585829 0.36897551368778408 -0.24615410189350859 -0.18022747409014109 0.55911459018973331 -0.29139854108133606 0.087686535959999881 0.13819850515890031 -0.21837843460228909 -0.51062486975215182 0.1012950336971393 0.054003336423222859 -0.19215373752206713 -0.055164670687201212 0.17629742359787062 0.32088883021315195 0.13963494697748424 0.26663229228481466 0.099906568641296045 0.14523417346231771 0.029192357257053353 -0.16919220640458343 -0.16796395334986955 -0.80495026196550701 -0.16811090208770313 -0.81856458064116766 0.27173699895045961 0.27884889697275206 0.30422088316903984 -0.56176288300285382;-0.37273078378652502 -0.45208630675683936 -0.21779449545458179 0.033623148869914757 -0.15996366365039338 -0.25807889353353797 -0.17642604459314959 -0.42651294779014826 -0.47831670444372199 -0.13450495776103522 0.010694506456163648 0.18648387435240402 -0.039255860620465696 -0.47802988926607159 -0.12490868389880087 -0.34272749329208918 0.044986865648392771 0.45309507561373741 0.03215655731582024 -0.11534735163214685 0.21106232557157173 -0.28551729025844375 -0.0057046139300125642 -0.58211697580584754 0.036936097031033718 0.80171306684418775 0.53685367355851055 0.56898781855602365 0.28226963941672006 -0.55283327109398561 -0.11865064769894422 -0.31248195007491214 -0.35722025343360431 0.13161250759391779 0.076935328332965083 -0.0085223680991520917 1.1994480708396704 0.05434698013745913 0.40723245897583438 0.26461497290056413 -0.23000106164209375 0.1725235481186437 0.13490905415569029 -0.45117239662760944 0.23934583941559603 0.12191037610652758 -0.18675940560026749 -0.4606332133141281 0.0056100494255085509 -0.190519568673652 -0.095497993837670048 -0.0046033371673542389 0.27275709598719167 0.36053754707129032 0.44564443579550217 -0.13612649555627654 -0.75228596839726103 0.16741722787974941 -0.062307630611046619 0.12933061227382664 -0.088007903665595633 -0.21549527311563402 0.3200097894337629 -0.22650799078224898 -0.042903970909297928 0.018272878033938365 0.061379625404349734 0.28791691986004897 0.76129949046219003 -0.083794640373056256 -0.240240927230852 -0.59683927730092701 -0.087816238619975964 -0.61079577467248525 -0.0076328574676511121 0.073384235397534636 -0.065501755132365475 0.44664529372925021 0.022699044858834422 0.081580286704338673 0.20399697999274266 -0.14328993377993868 0.15814381680604436 -0.38622317622853908 -0.63270792816847021 -0.096630046270386544 0.1910522083852102 -0.59180014308682205 -0.18718379197478424 -0.52493736867350627 0.3516170441919706 -0.4679009168542021 -0.057476432568226238 -0.30551710334109944 -0.3395130161495663 0.27729047302940024 0.33197939963150708 -0.32070796322224737 0.22488254524332763;0.35392666603223 0.14693071254118578 0.24720610449576425 0.2113749479020173 -0.59921140475668111 0.42401487657027048 0.14497530293687083 0.51798198505049886 -0.12010211941961976 0.20066527985859819 -0.068892161062657692 0.0078413819159447173 0.3520403404772755 0.51920560175714103 0.10471180855243711 0.5545653967545412 0.21646565264603812 -0.17235814291590959 0.097293084414423942 0.14392534486836397 -0.25129165650945184 0.26512214877310347 0.21887008742019221 0.24137125478937768 -0.03258419955753597 -0.072972484471442764 -0.24279082954288095 0.10746257507427834 -0.45689384618515028 -0.83210845190347471 -0.30836270907824981 0.078138777213358906 0.095448717160122543 0.13319628966479538 0.21717329998840082 0.48591646627366863 -0.428197158067669 -0.24877958452919408 0.22111723579326434 0.37236965986851495 -0.1558474232937796 -0.18617476782861841 -0.44218854367608118 0.12514189782278895 0.1995421536287183 -0.22568150240507689 0.17278982338385571 -0.1459603686509694 -0.6106215282291777 -0.6091908869960172 0.16741376421885701 0.38038202593511827 -0.34801292747965729 -0.0081100988909295416 -0.37105029682598106 0.46892167139830498 0.059978722902072019 -0.062009847497881729 0.46355701958687701 -0.086092295443747024 0.42119016073329402 -0.15936852450395569 0.064067028428856435 0.016783861992001707 -0.27773941887443249 -0.083783497550286634 0.10941635531029074 -0.098998793567909693 -0.079172606317777755 0.018699122805347638 -0.1890457810409385 0.34727106684873532 -0.1555380104961967 -0.27448509865269599 0.93691825811397345 0.096707707331409071 -0.40835390868749472 0.86702599351759679 -0.10831424735801737 -0.32005978781967459 0.41206928118918978 -0.46341451280723783 0.3214354501163606 -0.081028495328832634 0.2151884233244703 0.10536388240210838 -0.34730933928297275 -0.40577211138749375 -0.24441060477301174 0.50459095657430642 0.11118081655528832 0.19192491003946574 0.35344494305714647 -0.035807684581715356 0.07891979755976565 0.25787690008693126 0.26954049632446914 -0.62311218700659898 -0.17613331930238607;-0.35906178661987942 0.21058080602616858 0.46346361408889858 0.54610069729971367 0.1190093794031358 0.41578231545115485 0.23963702341835796 0.17003568944043101 -0.10936068100565063 -0.43108253417991854 0.26024542818587226 -0.11906390185754859 0.27918204806879537 0.19962362836536024 0.37806897611198459 0.056596197234234855 -0.13614228807469347 0.1614081878236443 0.32309952727564473 0.15791547967308153 0.15774706757579809 -0.44848319407721926 0.20824222137771276 -0.29584975273561831 -0.13430895727333428 0.033562180779884966 0.38464768125645732 0.17289818943080762 -0.027060250331279997 0.47130810059504263 0.0025200576931760262 0.3473451960853956 0.57402483142865279 0.30745563941350845 0.51493858641485224 0.32363099682932456 0.091689682391917271 -0.55921484166310842 0.031997809199405751 0.15373141812929597 0.13213690080217788 0.15549058983013608 0.27819803377666658 -0.0490552104329436 -0.16062056590932086 -0.16006445712314449 0.16492594467304592 0.13983993770274744 0.12185936942576858 0.24195651907473564 0.50008832053330976 0.59860984832486086 0.55274714198279529 0.14157855217984969 -0.10985865942059747 -0.3918101352237251 -0.3365054263725698 0.34618819033254489 0.29784827425593891 0.19850870333339649 -0.25876547255518773 -0.33079118666456092 0.071152212870105813 -0.26555366311391049 -0.54171129790867378 -0.26604460604747626 -0.24517770745642034 -0.0022871633435951923 -0.30443909653362589 0.028391424667727878 -0.17157571296506358 -0.52602611284811962 -0.16081557566715116 0.4651158746698873 0.3682987976195371 0.22264307256969651 -0.23448472261236802 -0.38554476171917834 0.097246145121449176 -0.080686658109752868 0.43940490678462818 0.24940161935518729 0.18230072661260435 0.074036205234524255 0.50775958733497228 0.10544319156873776 0.66045057039716604 0.037743266074665278 0.092414988379441926 0.22351079918846986 0.3903828827413327 -0.46530956169913834 -0.34583655057215668 0.28572754658679672 0.02423626707744081 0.19990997080267917 0.1145942977029432 0.82733926927379586 -0.066728268953717307;-0.22806520483604842 -0.23113450543839942 -0.27100875135799124 -0.056160297937011314 -0.55965404155928777 0.095755663935341212 0.041738808956072335 -0.20329269958968799 -0.22961988175594433 -0.12993966610423352 -0.20288160991000551 -0.37723548497787535 0.13898411902148428 -0.39230720156672511 -0.69556220698876892 -0.59858510183162716 -0.027552007922485466 0.40031222750035234 0.19463733411240525 0.12076048672053269 0.0059778583680250991 -0.32249850143580922 0.4077736960689734 0.19823012637223189 -0.12777319995713229 -0.39020207657077177 0.25172969401594525 0.28854739863843087 0.022107280066691243 0.36222514713173531 -0.47055042672811148 -0.10994158080711255 -0.11399835839254518 -0.55366994308828721 -0.32114801893389128 0.48069989470094088 1.0128354674006799 -0.31923759284895348 0.49127841653125504 0.82741635132381863 -0.16373482569909076 -0.058157599045305076 -0.42658875882471819 -0.64217835123636069 -0.12221955296093007 -0.43269088962059365 0.02590159888921293 0.075111981130925848 -0.21966948122413266 0.24138786004415377 -0.52623124853105119 0.77534113571571317 0.16610897360543633 -0.072365650424082786 0.29392589192895474 -0.30477077130555119 0.013765231581550859 -0.14617493446771418 -0.62266828739320168 -0.10014173512118255 -0.35399112310839326 0.19089750114833773 -0.069167699604852209 -0.60328867261723629 -0.16458201262358413 -0.50864234543988174 0.8715670360724469 0.50032738552076483 0.35044890948729035 0.20793123987631681 0.64783696600376683 -0.3259743959192089 0.098843346599109233 -0.38435178649907209 -0.8280373195772216 0.090594892542543493 -0.69578775707664497 -0.44913199964632078 0.020986997393986899 0.18334898432067087 0.19528964919187938 0.0057012785628465443 -0.27967140164003823 0.1683350858103457 -0.3082654890343538 -0.16916161096917509 -0.53154497252022348 -0.33495546949024102 -0.54161570751570653 0.18656750536246891 0.18273354482999354 -0.40428738730039776 -0.44064922170933052 -0.25783060598817664 0.53767690615144104 -0.3057154651945484 -0.16054865922411946 -0.31035709593690186 -0.59483943641051906;-0.042790958758946021 -0.24749667444877221 0.74148011665064162 -0.12942012172608997 0.0606283579663906 0.44540260141982196 -0.26695812436286176 0.14992043591175183 -0.45690598297304996 0.11671523747407195 -0.39016217148576404 -0.75505320888910266 -0.30434280775812572 -0.24889724973513241 -0.49953202362579585 -0.087322578205551088 -0.43034814620827894 0.10511930462504981 -0.11631678594307381 0.059976490321984051 -0.26544719983220461 -0.36055486509267065 -0.11301552253877317 -0.23487420381485988 -0.40385756658487126 -0.13787964080817244 0.15621538179912522 0.27119134680886942 -0.039403812161209868 -0.03952346189047809 -0.23076774689667212 -0.61772817999159169 -0.26651706130741559 -0.12264435800246828 -0.15853666045630019 -0.53650477815409991 -0.54303172270154576 -0.47470521095130686 -0.20666773852718257 -0.52508890177064504 0.18057568121895176 -0.28035622517503361 -0.38184734900081441 -0.11683331261269556 0.24662227917113494 0.011758264997038845 -0.21807416175330194 -0.038914111860471945 0.31495826303103885 -0.24822888549354616 0.46278034159047504 0.68915668177167999 -0.037189460195497265 0.52161761253669225 0.042638051110367954 0.42085287818388828 0.39574133297288216 -0.23887983292111203 0.61309631435095069 0.36097337886422964 0.670219949846519 0.078764370603059297 -0.13867411430142079 -0.40675446415477923 0.67896308305301489 0.64811294596478852 -0.043301839132525083 -0.11199972281230638 -0.2643683460910804 -0.54124101710390249 0.042017856045055077 0.052273953668294917 -0.42940819687412118 0.0033801554438841822 0.16549082349108457 0.029026451952575562 -0.011138379158703804 -0.20667644468605167 0.50944986053354946 0.12102501999323122 -0.34924822935737715 0.0098497548311126185 0.064333848569738311 0.03252459052755749 0.27903848417266908 0.049383228626318172 -0.099956390761095609 0.27729648717296485 -0.050340133521392119 0.11283806038608889 -0.23373372014238544 -0.48830308707295655 0.23785695535553331 0.56023775382527419 0.63992555016367836 0.71750313453254022 0.79777216218180114 0.21714072304809254 -0.89913629374766457;0.13956965112245864 -0.4262246942029716 -0.50387861227265685 -0.2051516492450664 -0.61415094926262259 0.076910817328197476 0.58225917182612241 -0.2829678030296745 -0.066998487125751668 0.16063937837488332 0.23932560572480188 0.049012124209718219 0.25291750950666003 -0.23542014906941172 -0.23831609982441257 -0.46131636432776812 0.30015407004000955 -0.16051332996928908 0.17282823798659525 -0.10903313814963836 -0.17867882125026088 -0.3236455147229797 -0.52736786951606063 0.31630298915681232 -0.1008100020453898 0.30343860460957944 0.37519627730300981 0.37234917509759752 -0.45350086656574756 -0.28155290358430324 -0.13760869134157785 0.51912746361728934 0.067108687490781388 -0.23584933203546302 0.017414424673131999 -0.47895849426970805 -0.55749599308667075 0.10328283468733009 -0.23797476608931306 0.30599010947115568 0.52048826879128485 0.21035368968642398 0.667343551107072 0.27299990579968048 0.24099609392405352 0.31908845782200518 0.073045867617616708 -0.25411637106530593 0.18852097667060713 -0.71755494996204416 0.52415233807055728 -0.12058808622053369 0.24276490047589361 -0.083441305614470607 -0.048198837626760152 0.28496675109564651 0.1684108503155389 -0.24201755290047136 0.070440579006245216 -0.18846771303102039 -0.002712539693282931 0.40615129468288036 0.40643617784934782 -0.092055257244193112 0.0078814396394490255 -0.13043728036179528 -0.12305565832849102 0.1662328453336071 -0.25177042144838047 0.31262138733654482 -0.38877960972710063 -0.32648096147997102 -0.38522942980555408 0.12170347616401118 0.30405149016056482 -0.096193474157274528 0.20837692638350414 0.13567826147058476 0.70735110009042312 0.21868583380262335 -0.29152954379699658 -0.0078950367230841735 -0.098840264307452769 -0.010778556907238581 -0.30483096482959321 -0.041265929482882033 -0.25947372927743062 0.59014665725649373 -0.37624099392330501 -0.45427469881732813 0.54477046625765579 0.20508358913323171 -0.086141141588853123 -0.12023971053504608 0.35770949563535243 0.34850898774737166 0.63914432473631799 0.3136332096890137 0.36674783522616117;0.44701498535992462 -0.033528489697277002 -0.30276888965854754 -0.30800291395450846 -0.0082009620080695581 0.24611233839569513 -0.23955575845218102 -0.33182392529484561 0.035646208013772662 -0.17153473056958576 0.18451342206191365 0.26751250405881755 -0.24791756570572004 -0.13119311628138197 0.38596300577771708 -0.203971443721644 -0.051572903964894418 -0.10729963577906687 -0.30647169136585123 0.1267422473017103 -0.55739661006258445 0.93260863649742554 -0.49265687131960517 0.28950685149102801 0.62491391650887018 0.14451086781021627 0.10264456117484136 0.10665468703668744 -0.14256303562848502 0.2142619704907055 -0.034087276862005383 -0.15352223837928056 -0.35128771744231335 -0.048474905433913924 -0.43676021855287422 -0.26836711623164256 -0.80676159580266715 -0.3731704809420287 0.1221955165111496 0.1045694942246107 0.050625380617589304 0.55042681776396196 -0.066875444365342859 -0.098033481886258073 -0.26221725255643774 0.21434263404926712 0.37725047662722 0.48613521172534557 0.094577339923416312 0.0044027569958956028 0.49289632983415793 0.23547380142098134 -0.011398313253235712 -0.15006389867873537 0.21192948992027261 0.085294884363415424 0.30531817533807748 0.14832230692466231 -0.45878484193412611 -0.047108651560580188 -0.40821152750518414 -0.83227553369691709 -0.48241803615815698 0.060826434585160585 -0.096800029386949371 -0.16311642349384226 -0.25846314887651378 0.063618290700526506 0.14931509542262611 -0.068107391355136743 -0.83599797233225548 -0.28716302812553318 0.29708458807280375 1.0897833712549456 -0.16703254294366116 -0.019437554790991192 0.25302612923895479 -0.067642946437161608 0.35556102679186086 0.14375806254324072 -0.17001480377612044 0.17087413880612654 -0.33189109949602563 -0.024845700690464718 -0.55309465337742802 0.13119663553108615 -0.12146898871278367 0.18708077468197393 -0.59802621338923079 -0.51034498280038432 -0.82830614472739816 -0.5557687038298269 -0.43212071956138487 0.091771778435221329 -0.29484197796558537 -0.43221088326838064 -0.32093892244763411 0.28840978837762188 0.66138972796514328;-0.038714268180066867 -0.24470274866900912 -0.51804120253102282 -0.50380205630556774 0.47106729361018151 0.22170247130816631 0.086760855998932795 0.69028511893758671 0.20479178820266528 0.25688543864699548 0.39776979098697363 0.17835840423141958 0.30502956986525387 0.10606207694166846 0.078290782469865969 0.2987570687427914 0.19304713626403899 0.33986092960575859 -0.32070929119350156 -0.12690713752585814 -0.042210438478431297 0.17040013281704647 0.52076076832565843 -0.37378536638472604 -0.27275020135226946 0.33087009982702842 0.31747470607381029 0.27548614850387104 -0.11985757756010892 -0.094169056300187293 -0.14615236382559452 0.040715715356903576 0.17388291941783957 -0.18884528064137912 0.028909447666055653 -0.15253914909935717 0.59054741955324463 0.14930619689178726 0.66270022795818784 0.22770791866610587 0.44383863892119751 0.15479052023464251 0.26687513938333912 0.46427487161116676 -0.091361652677553362 0.0048969841392054181 -0.50417203089049711 -0.034000442978973575 -0.51961651161283462 -0.14860009543911257 -0.58770978807424845 -0.13679559701464764 0.14833554487494538 -0.20988501279249186 0.46446024252190926 -0.065048912081110161 0.3073350315199338 -0.36255443866536613 -0.48197486493694452 0.27670581604186051 -0.28057902316939964 0.54699731985085887 0.29526329219042174 -0.25945141280308204 -0.15934921421548542 0.40972591202783065 -0.089627971868196182 -0.58142513477727309 -0.75234965221009364 0.23834791621053655 -0.29866573866306506 0.3190296369450874 0.58672701099303137 -0.10213110073412948 0.14179034862912809 0.019936262036793218 0.33284780272422021 0.24147417237936541 0.60488162857172434 0.34915897361018416 0.32934702371903157 0.3060652140962063 -0.2174933619324928 -0.31698833890841072 0.038638641991780485 0.2783222452455405 0.41784949570416352 0.55623001410546691 -0.57647705703515539 0.066791194704900858 -0.23225423216116017 -0.13506395355380596 -0.13451798268575244 -0.057256993145358794 -0.060632750767056619 -0.21656284640979298 -0.1575544709960231 -0.3650360819340201 0.53791589881757984;-0.20380479935589452 0.035252364265175959 0.19613928554990628 0.18591024815180607 0.30062646123946496 -0.012776050448451919 -0.13225851325889884 0.22665895604295819 0.29569745550750531 0.28707550153721756 0.05743776372292396 0.49806892267465869 -0.45833282540160192 -0.015390733032315375 -0.35114458590905995 -0.11383102730297091 -0.47111194984738214 0.38655192441174591 0.1443052178748146 -0.043499336899401081 0.241691593691363 0.39643084360120745 0.20192573499465383 -0.25910812293478896 -0.053148893687647525 -0.42022014586417089 -0.02034386408028253 -0.511869115119022 -0.17333608073455431 -0.57569436067920543 -0.19235850694734297 -0.16996833716397741 -0.050627789562425161 -0.54366945385552135 0.49079620109636307 0.60460943333747463 0.44887867914030044 0.34235089180408446 -0.042594571425783011 -0.44813591905109895 -0.37163107299751452 -0.65316405047535442 -0.49829098895598384 -0.70935549432133427 -0.66318781714521891 -0.52034789266386738 -0.21486156153962582 0.087309215007451618 0.1383882723663358 0.46718829565815634 0.08046074028096073 0.38156632865780643 -0.063041320296020109 0.031185999160708529 -0.15233014958076713 -0.15945595080057001 0.32146309628052577 0.66594228150001178 -0.2969338011114494 0.10825583685665505 -0.22971119835317283 -0.19042017501440012 -0.30164597137772475 0.33211021523709944 -0.22485124462992243 0.076925334375151228 0.2804500927656165 -0.17761532437983618 0.40200974448793841 0.23831583701861347 0.36220433820728348 0.14816826335760119 -0.1141857312571594 -0.18400491917442746 0.88472814117403864 0.40502479355816645 0.15665400213147754 -0.33029521680838536 -0.3777518161807345 -0.033125017878728222 0.021626180154558063 0.27463393165067052 0.10612464944229992 0.277854844344402 0.256753381064317 0.82549163874948728 0.27668973109107886 0.096238550205065373 0.65069536062916766 0.15756113172038533 -0.083760643057894574 0.80641545386608793 0.21365020273355212 -0.010645209427560032 -0.44313642887851801 -0.20595375793103057 -0.29286633300003362 0.031760705796089229 -0.37060827389576101;-0.35106500286803588 -0.40803784351250416 -0.66173838995504519 -0.10114701933012496 -0.93316133859593431 -0.077002194137193072 -0.19360303209671942 0.23149979177891145 -0.011766474826951822 0.59748138959516939 0.30473080943533698 -0.44166518664461757 -0.82862583738733675 -0.38042888004109643 -0.27315047497008221 0.26063133311003672 -0.0099257887207201984 -0.22970440084156613 -0.49682724880977736 -0.61467220319606097 -0.075883261146204334 -0.41268471099945248 -0.079110031476037929 -0.12263700626776081 0.48101101245253702 -0.037266250415236193 -0.77817618590473703 -1.1775538344535694 -0.64846834684917765 -0.11318211862359788 0.067711714777470344 0.21463270778342017 0.19546378128820485 -0.1039120394268844 -0.1843030021035143 0.19272607311569065 0.32133919499720615 -0.12286139861097403 0.13698958606376557 0.0033265782102546576 0.33710646683823886 0.14495407031968685 0.29054706467760733 0.35511406771816029 0.18829365096506467 0.14280603394323532 -0.15479911810900823 -0.34340600233927721 -0.30165872595527538 -0.1099092553888949 0.13657987759894519 -0.16231501970050391 -0.70465016602827779 -0.28503210106997257 -0.071149471909737999 -0.0033854860430444778 -0.42958781970899607 -0.17534577367927245 0.23424841136951977 -0.011739876743868699 -0.20392210687742243 -0.3587804015928413 -0.12095221690496338 -0.037838613020133818 0.26007937410216991 0.52627020054985674 0.14956284724308858 0.62001408573802619 0.28815084831560744 0.25763840223631906 0.49945539867510746 -0.061700388088272301 0.24380706670060387 0.20887141942897428 0.81022441269265577 -0.0033026405868907746 -0.19879582977114016 0.19594813858338642 -0.052921241820075272 -0.28128091268894051 -0.16242525950956807 -0.59708047591065605 -0.5479982222787988 0.00085272181485362974 0.047091403663095756 -0.44656379768161802 -0.18329795741736879 -0.53220268008421678 -0.24670828404172557 -0.12215384179830985 0.29379623855507631 -0.47075585636048423 -0.21267673811000123 -0.10888672262041971 -0.016532850976736683 -0.56750320142671706 -0.84434666668680491 -0.059518428658146605 0.068771522320132825;0.053472483065521353 0.41722282850729947 0.04822310862814503 -0.086731327866605937 0.34382480613141847 -0.43110587579370474 -0.23500683919163212 -0.26792777607219065 -0.14580424819105287 -0.24069668477245854 -0.13379014015292678 0.051108302743484726 -0.31801812069195068 0.2048035022246536 0.090685410688154416 0.29634390003570682 0.4074488265404283 0.22721307832411464 0.069816472727304152 -0.0047593001847636707 0.40337319143928085 -0.2474667203861845 -0.13953796018331954 0.21802914259714176 0.092278589251758247 -0.28105285530998181 0.16774499576820462 -0.085982645533490387 -0.20155800966560061 -0.66461181726661811 -0.2826191241841346 -0.19309318386350982 -0.34517355012458967 1.0617626698801392 0.56243201810938714 0.033486336990300847 -0.10393102228907736 0.30088178941457183 -0.21847650925559872 0.25734672322481111 -0.023003658008321853 0.65751203762274146 -0.35901676624835044 -0.56844036181825364 0.51068756869204135 0.052015849574047271 -0.16097149137762781 -0.31560376046768984 0.22364290086121333 0.50388185294732368 -0.45828226419037321 0.51994496438483928 0.37224688881683576 -0.095490696446648884 0.32739182333748673 -0.082295644566496073 0.34020428166186872 -0.23033979708325758 -0.23576132454399934 0.18182325458807747 0.041343606654012557 -0.33107978500038038 -0.61523780352494828 -0.4501429641546929 -0.30784797837222333 -0.014771358568334281 -0.16512051103013026 -0.33033980896426784 0.38689641857796586 -0.24397609958895619 0.05216718012237679 0.062561309611605803 0.021929324328654715 0.051493411764496219 -0.2044396011114937 -0.57811934803438392 -0.1796225658704651 -0.11011010459831283 -0.28821249535535498 -0.12391637863199492 0.35182398388413827 0.09956005482890469 0.080897553681968284 0.091062053657779987 -0.45656891656682008 0.31514783075403818 0.054154190208613069 0.14998034973266969 0.13582320874922299 -0.11857257094228149 0.22236746266250357 -0.35615103180050695 -0.094427667517486588 0.20854937509638083 0.32882637970812684 0.011881896797991627 -0.053032026326635499 0.10846735013466835 0.36449597466558536;-0.13882914952596681 -0.0094904086602932286 0.08739896392205955 -0.10703228083934876 -0.32631679113043366 -0.11192950070817412 -0.11780911417410317 -0.43782490041876904 0.090750612615174281 -0.52406740847266353 -0.36167340515183521 -0.14036064108138332 -0.23432584617008723 -0.11739728718971112 0.46412945809525552 -0.032867518319402621 0.23884753160532837 -0.37146695230610999 0.37578439095334948 -0.14978734349883582 -0.13870305828035112 -0.15254653991158901 0.30313639116261387 -0.15130626902970254 -0.22665581193306994 0.12671830324555935 0.025339350224642856 0.55378084688503715 0.10500828353962106 -0.0099119361843238302 0.058962067199785625 0.41564077610612454 0.048944377896210922 -0.057479056202719994 -0.21390996483839159 -0.34642527008768809 -0.13642345458880828 -0.1859103848738595 -0.048896729216245091 0.20427237119854932 0.13890675136766034 0.66263085641416331 -0.29056209500361474 0.58050598475618687 -0.21133572146212565 0.37874929366380194 0.73155888663030311 0.47427404681985313 0.27537581287926649 -0.26287707290815587 -0.27230645837928047 0.11919371865270717 0.20611505226103807 -0.14140652292496625 0.62904332527726026 0.043305715460831742 -0.31133566174048766 0.37801843247728467 0.30626917407525794 0.43389293039060117 0.17880501819267131 -0.096403737372129289 -0.042664590326361038 0.82539082136377762 -0.059762779381788644 0.011758147474397344 0.20343819517324518 0.64644006929238429 0.41805855478446458 0.20620364156649695 0.10544781505963656 -0.27158775569162252 -0.49520278190805367 -0.23087283136547604 0.025464885524148006 -0.018776651474875471 0.54160408645340374 0.02687692921535029 0.13497983238352057 -0.087796569565999016 -0.51799180702822811 -0.25658382939730645 0.40794699578750071 0.21409914233418983 0.057535555332006653 -0.33363310107097283 0.28459114503188326 -0.27657590407673438 0.20372348248796471 -0.10625569395063662 0.17626817451278917 0.062345846565217564 0.1154258482584736 0.29773035373130091 0.47370427522192748 0.36809520054951694 -0.26204272475706314 -0.42412096215090356 -0.66776529995049461;0.26490302356082379 -0.050046694393346802 -0.13806916170571687 -0.15779379291374895 -0.50531645403161829 0.74457160643993459 0.82598133264038154 0.055438083682023423 -0.749718918657167 0.072578000720593866 0.20348591628298429 0.18472652678312945 0.42238850894920799 -0.26600412957660152 -0.21166227835924173 -0.37210847341832332 -0.32154555562059017 0.32529989283525113 0.49874908607969087 0.14992620503158144 0.21931119086970877 0.21172167792884775 0.36013467693911544 -0.10165055910042482 -0.50623786563540096 -0.62951061496875149 0.31396734336047438 -0.31220562584098788 0.15773839513733712 0.7077112061085824 -0.16144224086966261 0.1703356725457493 -0.052896919634650805 -0.1061372721738118 -0.26318428229068597 0.49960011997493636 -0.0043922186596970017 0.18902367772902981 0.22884628421639092 -0.23682397124820889 0.21658821274328408 0.066465571947886881 0.10843509983908951 -0.53455007039887137 0.52285699651222084 -0.3809219932291501 0.58091493773590142 -0.37046304289563908 -0.027315443158421909 0.014219560506223725 -0.19062503115565282 0.59804391989065908 -0.28942978909502898 -0.090044967267776041 0.056721291701432031 -0.33542055710924701 0.4544889574020522 0.10971640893015037 -0.21427352671723354 -0.078930131099875678 0.011217368019090582 0.12372778310554193 -0.26147992501872952 -0.084550253165094832 0.024958858814100163 -0.051532495617925174 -0.053844517118916635 0.24220821247054905 0.0092869657764708489 -0.1502930326997193 0.65902583217896116 -0.06994748776174875 0.014411040669232995 0.5990304333469838 0.52068663810574733 -0.46660673171426581 0.36588500543404362 0.16605275094543828 -0.28752553682725274 0.48502923529774788 -0.24929947136020983 0.24462288779639318 0.062180937778265777 0.11156944130175171 0.21192421501464753 0.33794282878671794 0.39297237715634592 0.17252514113543616 0.008458819044751922 0.21958934484444148 -0.2584852906635387 -0.61310386733374989 0.2227743403805604 -0.36367205424263038 0.049477921454507828 0.25650545719697643 0.18217121689603391 -0.057942894220534349 -0.44933183033798352;0.001631321146566625 -0.50498984142867498 -0.63414690033190924 -0.31610853797427158 -0.57404579350352225 -0.87418744016231387 0.077799215341597977 -0.21513213726768443 0.54781264855755663 0.79108792996357102 0.35956841969537567 0.37341913192215476 0.29463258364528705 0.61713121124592818 0.074684949806170478 0.17046916420482008 0.048728532642939269 0.23372037507393589 0.26363889992304412 -0.27472347550379728 -0.44882917581796289 -0.14374184039074339 -0.25634260724207664 -0.37271919270992554 -0.11151327922927265 -0.018159917779726448 -0.074043213312964845 0.20742139297107962 0.45604423403615185 -0.089734811187279925 0.46755950669309743 0.6633625631640625 0.36862927807155826 0.0021138267428023813 0.52464675230695679 0.35525421279388553 -0.10266119306211102 0.09687377697908009 0.27435701788710942 -0.21165019434226609 0.2172508930984014 -0.14977779073956729 0.41654202862607265 0.64417178960566668 -0.12052237881768305 -0.089941318368189721 0.23830571424160224 0.24680127899350374 0.08760008371564304 -0.11823441736335977 -0.19847235802479715 0.42478270811445396 -0.26294126308312954 -0.26958955641952642 0.27626129166129765 -0.37169517606159408 0.1333243767046256 0.58469417008970126 0.10156371676844148 -0.030162984091662667 0.52794372973407722 0.0020877528699470779 0.35375620703016519 0.038775389703472891 0.23715665685990839 0.19422033457003113 -0.018510214762845076 -0.43857158898883641 1.0581813585141522 0.60323715637177322 -0.45574796986084248 0.054806757519334878 -0.028692648834134311 -0.13767982573575857 -0.3131944409873515 -0.068786877762145038 0.094739900009325917 -0.081882942158762517 0.42069371229591823 0.47320851999492874 -0.23585747020146092 -0.36446286795270671 0.001440863397114002 0.35700549790398223 0.94807136322432173 0.55544334293671682 0.18942815605118868 -0.36867752999950998 0.33734660603882899 0.16107658157646507 0.014421932688619698 0.17678601501910354 -0.33241675900225393 0.70531155319855987 0.27820922457964881 0.68794364709880196 0.35938625374047217 -0.36749275491365957 -1.1289174965156161;0.5819046020115034 -0.04019063548201076 0.12529564707215216 -0.34065054577451548 -0.10284100044682448 -0.40846202046048696 0.078531956233737293 -0.30588342035127108 -0.034596918614476183 -0.65681811077645957 0.10297648027572008 0.39883622465622909 -0.111953084570032 -0.35914077350588092 -0.63309595481402248 -0.33937806474289611 -0.35710855464241326 -0.52304556515415801 0.21563347652196899 0.21788010063134691 0.42552645435650832 0.2785163262533083 0.092435638302524256 -0.35819531215082101 -0.095791671916842569 -0.10322057283836188 0.043985850811685726 -0.58768206136196044 -0.17922766877477178 -0.65862306079365396 -0.14701671758257409 0.13676939654006465 -0.11826782483144846 0.18004478304072857 0.29220403770565584 -0.16859066629128824 -0.4540802872871012 -0.11045228718809363 0.15852628460600751 -0.13550879006542524 0.49438394430721094 0.42451411051589671 0.37767198005404862 -0.33205187641893091 -0.38199660151157833 -0.50725801567652873 -1.2582964915718393 -0.16410630152741382 -0.13642101745866247 0.067995709101401861 0.21645038724882518 -0.010041949730376233 -0.023136131985413148 0.52307393212872166 -0.05642824875185553 -0.3259641575244055 0.34343421933612056 -0.059612932266612351 -0.0030840798368622548 0.22829250337295623 0.11022095109841001 0.43345454895287788 0.10960000376470769 -0.1474651042065315 -0.19058726415729974 0.62809282254836363 0.54141375596338714 -0.073127666573489875 -1.1004212575987191 -0.66784274651558906 -0.31575548790614499 -0.29994885983535097 0.21046360276972034 -0.39247476357726935 0.33860711202531896 -0.007463725734526739 -0.8616735643425768 -0.63156231147946351 -0.23523360518539438 0.18489118183289246 0.060108495433892073 0.10969437173887059 0.15540633891907082 0.16713681137707373 -0.2429914014744832 0.44223130244349806 0.19213752662300293 -0.092217411932156351 0.014610163844400966 0.30736022355311782 -0.27522292856416464 -0.32127833009976081 0.02619767009691594 -0.18347941510926977 0.17476942697879763 0.40179669125169704 0.30721919801366721 -0.65684335392398929 0.08652714540600101;0.14812305448353663 0.073122064631872707 -0.0071993987747268132 -0.12909973681688444 0.12814438668653783 0.21988400204852154 -0.073308325992038681 -0.34417605716417621 0.44642077947688508 0.18395246780265562 -0.026783380067109386 0.21971252704720731 0.26554643585245574 -0.10143241002884246 -0.034216842435206243 0.23027233995484772 -0.39378786775143226 -0.42871389314102082 0.37021240217165718 -0.21613756775933357 0.0942199949906877 0.40992057806349286 0.013177145290903778 0.42214440770468598 0.70611090116351549 -0.56356581823263052 0.11748315655764756 -0.40260546146220755 -0.29131895304170341 -0.3069616688214753 -0.18971308894866068 0.46687864467111451 -0.32271998478865432 0.26362565338902416 0.05520734153740052 0.25386621567069123 -0.0057131279110877158 -0.006391470392573817 -0.11926366011667376 0.28577132862275278 0.5308409244809198 0.91536759656296007 0.15725491259643767 -0.105548375737119 0.032891080720489865 0.098438205436121057 0.077337622710492493 -0.13786978818200391 -0.15624644190727277 0.27421388308191913 0.18081109500246947 -0.0031561706723399266 -0.026507573019252051 -0.12187784248128328 -0.38980394156425424 0.14356912590812226 -0.37028874595851152 0.1273408345419654 0.25939802955487112 0.20082010575042419 0.10075464875523929 -0.056741589676050919 -0.12275309565840804 -0.53998488085244567 -0.24597908448266226 -0.32437844840702251 0.32495789355310212 0.21796780179120095 0.32402150542359442 0.25102351913836868 -0.25205743762502314 0.47208213625452472 0.25221998687150871 0.18053950873214503 -0.067831348144495499 0.028669387831027689 0.24448533968465902 -0.21805193620015112 0.22469745293846086 0.46225897539996075 0.32679953438425974 0.39849563495245666 0.21340020745075475 0.25148428091541336 0.4244830778476168 0.10863639393666955 0.14876137225513986 0.16213368164034686 0.16694883744152905 -0.16178676271163644 0.29723827801817093 0.46191634471654452 -0.11042645307507694 0.25657447803705036 0.025081343664979282 0.34501050880949252 0.49331511875036105 0.094392772315568391 0.016923579929805654;-0.046627194849066758 0.30076959112961255 0.10488012037363267 -0.15211040268614842 -0.041669219360883192 0.00070546075084543941 0.83610338747597202 0.51457836154665149 0.35391539191699528 0.12539590341494833 0.47573285548416483 0.012051040623643056 -0.35346544452753326 -0.31879249736081305 -0.098581394498184149 -0.38566624793783616 0.04086459514944657 -0.55862477387109488 0.19178787306961534 -0.20756029963666861 0.33193958167582854 -0.27759111750758236 -0.456403290990475 0.17935802707541532 -0.46469308945175392 0.028183247969016292 0.66781478249890058 0.42176422699007821 -0.40139620817595001 0.4004905268175008 -0.43336770263172947 0.17537026515275711 -0.067326929192947499 -0.82069740845192429 0.51405253461571798 0.31843925802131212 -0.78396930072634863 0.34936142046812424 0.094711957349906853 0.43592829230676283 0.39772661801132758 -0.27827265040994204 -0.36434823738799482 -0.12889426989512315 0.18320658985588284 -0.90652209193460087 -0.05603915095641851 -0.30995598921784756 0.17872978571930714 -0.16946833156523886 -0.33352498813940468 0.3046596915988814 -0.40168999929342808 -0.58856440762405204 0.31974210110644952 -0.26153686115123648 0.35364767024370519 -0.0058668017674063863 -0.5083969944608373 0.36277538803803849 -0.25501811525723189 -0.15550444950531009 -0.13252134269787533 0.0050191048920141014 -0.33561300137041727 -0.38707172915084598 -0.2030507388203163 -0.23161077009069819 0.0616675566101135 0.23759017795888848 -0.21160921215922607 0.20166795495073406 0.26905593760518681 -0.83282742355369732 -0.89703125429534214 -0.11666084693715267 0.26789955914204233 0.2527725757851742 -0.47670237152991463 -0.48281670604412347 -0.30958127807222163 0.59794377648564589 0.26246518465778873 -0.013796869161998885 -0.76070673909470632 -0.033066675312396446 0.55733920701612172 0.1620883699799891 -0.14536213064646791 0.10663264106548617 0.51113279679828716 0.11576159876668621 0.84179521342125785 -0.16514411971064966 0.32439385274327143 0.30020178806668985 0.60103335051487194 0.0017283893022280138 -0.87665493544766937;0.62204925639545727 -0.020488141325453339 -0.79596181934822052 -0.60078203787902296 -0.21710624767980702 -0.1953881574565445 -0.21138769148611825 -0.012329658789323968 0.16535728077267942 -0.24517121307174211 -0.2801137422746679 0.15719777467158236 0.0076154890967801564 0.49204370497273875 0.19516515934612391 0.11271077625503603 0.083181868547040863 0.0053324953560376989 0.30883098417372989 -0.026806124596173164 0.013671022308803595 -0.23187690260318444 -0.046723192143548489 0.25468063789474937 -0.37496316750272196 0.37339755485050302 -0.17576580676253897 0.34891225399997627 0.4909737649422265 0.29596030382945326 -0.48018542813706488 -0.1931248939049825 -0.41284818675602147 -0.16215798508368801 -0.17319963781524189 0.19929392670917231 0.77057499349970104 1.0131774734043819 1.2970026816522762 0.05874583743178019 -0.25867390515554245 0.024438006709268337 0.59484965488503827 0.72386431795597672 -0.046687861654183295 -0.25594389472280238 -0.58117422530651086 -1.0111247368475884 -0.28190399624341889 -0.25759924380369364 -0.15172659681645231 0.2839932305551448 -0.14957465377599116 0.19757622948159251 0.28270810993961765 -0.35100846159069365 -0.26114260577882092 0.025734311225550883 -0.084460497397473605 -0.29006928594548709 0.17506866083334122 0.14958219564247963 0.35727830681870787 -0.1275597733552484 -0.2447515225860476 0.20919927762881829 0.19949860062784119 0.28616668724777194 -0.51828213263087308 -0.003855986243474184 0.25050525063348972 -0.32159668934084801 0.77041665457187058 0.049455867256421079 0.033622930216507786 0.19298800519700918 0.47145407459296285 -0.12337957767191531 0.57296904825512973 0.49164504454769453 0.39391473922448722 0.46009822368097281 0.096080678432861305 0.41582591690004922 -0.29339244928336444 0.32312900203559169 -0.14166427885255356 -0.62126962476120162 -0.74696876082704111 -0.17047785773156318 -0.19248222257157682 -0.21290464002537438 -0.47286701341693277 -0.26282193463587489 0.24067995062393804 -0.25058474183407686 -0.3887877783941347 0.18005492753530944 -0.082208335579946237;-0.28695251692597534 -0.049958708589171494 0.34044293655491326 0.24627855607558022 0.18501429588783047 -0.16245516806610755 0.31135553136410976 0.089298097843201724 -0.36660161459516089 -0.41543975668718919 -0.43330624735988932 -0.33299553208885274 -0.040941873754220461 -0.32141271504758906 0.10747509255852226 -0.22563265576300787 -0.043995954906661437 -0.33024733870006107 -0.38373642284607129 0.044742465794710751 -0.56856970235347437 -0.23009128074471588 0.12972205227091244 0.30977888473693072 0.051401682960232079 -0.18294988087116512 0.099055056667027352 0.05446422487606483 0.8055485556922064 -0.16644155746956879 -0.19070043558505165 -0.30792196033081543 -0.22530489286873132 -1.0396188103703046 -0.13741622345872068 0.27761769703872574 0.027824425926044477 -0.24435565613064536 0.048450768098349542 -0.24331090635924366 0.26535762089343795 0.20316283839331276 0.80916093255808619 0.16442406337583501 -0.053985480068919775 0.16912593200250697 0.12136472935278568 0.096209864188757405 -0.06404393689647904 0.2285242603926847 -0.40426889202186195 -0.46921900291537327 0.054364548034574751 -0.96287473395813739 0.211413139211165 -0.15297366289011249 -0.3634396115014531 -0.69665273261117577 -0.23649606323045208 -0.70515388902308329 -0.36202454294529585 0.10607987948423395 0.061129278337981013 -0.12767496175093171 0.33799122219564759 -0.59255087823575314 -0.4509340222979189 -0.47549564333576522 -1.2095646912368347 0.95635806302113102 -0.43608823466769026 0.50192756301313324 -0.36733013799010505 0.05050211319835575 0.059027513145740076 -0.2236693369518406 0.11973154087056942 0.10179895927544701 -0.17229274244825871 0.0059002634967953204 -0.51101516688920912 0.38129167123947955 -0.03831296925951197 -0.40340966132113976 -0.25514932152032993 -0.42584033134486093 -0.017948091391540816 -0.48367518969776929 -0.040572040016126007 0.041183486565697647 -0.017207141912894276 -0.31084513887502724 0.077206895111800858 0.44688881782135376 -0.63293511982103134 -0.59804279423466722 -0.12485564341310627 -0.30802708271299434 -0.24222491003649546;0.19243698275201604 -0.037797717403022152 -0.4616332975642693 -0.3587096354815677 0.48590931257320868 0.23816408923307619 0.10897838105466873 -0.040045878565599338 -0.12612428383503194 -0.086169812218855696 -0.50028891917501472 -0.46861087528159323 -0.26694966680095261 0.027325291883515249 0.39237213125545101 -0.036163083394688988 0.23939827306619429 0.34951337467414617 -0.38342029697516766 -0.024829866074597147 0.093538488278724838 0.21144745994900926 -0.045768198898672174 0.12094742380367614 0.11196087380961653 0.11860415226175514 -0.23529858932090753 -0.27225434360522782 -0.43863921296552411 -0.13664941846635564 -0.31941159080880055 -0.024789360368393888 -0.017765856531258721 -0.013697924435219135 0.12877398840258927 0.20375436592604401 -0.27406223803391705 -0.10758255700868267 0.21374687305847684 -0.10844770173650092 -0.42088975706109483 0.076988617589732328 -0.0726597757749948 0.16560564268734324 -0.11166801339992519 -0.21923537268955703 0.39662873574032648 0.27989604395846535 0.37754820340652862 0.33085060194047378 0.23870654565998473 -0.14423037076864306 0.045723657699422368 -0.013588923813511303 0.21125508574234572 0.52945536730550313 -0.11503432361372262 -0.58724172227391214 -0.097244362770868301 0.15105909567855505 0.2583901951149819 -0.12722620843862709 -0.35953035594968863 -0.1574167840414406 0.20393980249469312 -0.16143355880181046 0.081503296332076661 0.12583507155743059 0.37674427192218762 0.3436948922370604 0.068345433234150543 0.41630905270071111 -0.021246775659671722 -0.15993173851515041 0.14621450916752615 0.31900502425814353 -0.030407416956084711 0.19968782172162264 -0.092058463669095161 -0.089723966151093543 0.0054043112110141543 -0.31938967861387213 -0.18253493875041821 -0.22365268304609431 -0.24925055128129683 -0.28448747297424692 0.34727632672595243 0.261650594433609 0.31749207084564718 0.572073756901465 -0.18125644317839168 0.38452561153798792 0.10886999982780619 -0.31014709048133521 0.17964443871003219 0.24161482769835382 -0.094518478742268167 0.11466674773082962 -0.026202789648982719;-0.0080182029536939176 0.41194701015810942 0.19338907390143598 -0.57715389295417652 0.21867679668140738 0.41753457926945192 -0.55872926062929595 0.12573054382972801 -0.16339228001063322 -0.2104766966644129 -0.097784428778082813 -0.42137000995825996 -0.0028484409426950547 0.18593978213843146 -0.57264407387375194 -0.26517727859307771 -0.34371074003549795 -0.091255634806331032 -0.40103292713709526 -0.43240115742394464 -0.38882881766863281 -0.1649219047240246 -0.087918162409404935 -0.19563570521015061 0.012312319386326737 -0.3765459275442295 -0.17889475499183249 -0.080303187298672835 0.15909452295800139 0.11128285310346847 -0.095024557180314051 -0.10464679051491303 0.058568815942675871 -0.36386432701488641 -0.16989018580200513 -0.083919412118594883 0.48980847970994695 0.28495960324481118 0.21148525807643415 0.20392554431809623 0.44433607801468772 0.10202380649545681 -0.13685801193919475 -0.14604128745771866 0.22815944417423167 -0.20054917983432566 0.048106491377191536 -0.086107921528374487 -0.15844493418038272 0.17376488633913059 0.39096933425401925 -0.20764285894870815 -0.35534242054817933 -0.18339982753480427 0.2603951791510194 -0.17511520295510322 -0.22631445006658804 -0.10900967609971104 0.012148704295240564 -0.015670118676875122 -0.12247286650129913 -0.1719035440867249 -0.0028734772871715324 -0.43101466494630419 -0.45092731960562971 -0.10933554915187581 -0.46043534215929138 -0.55303206337957711 -0.059010339664425933 -0.83726802030334635 -0.17512859266620129 -0.54989632987361892 -0.42858407383912372 -0.080847212862552573 -0.097876648439393255 0.024144605471550715 0.25629594104814679 -0.34457484513160375 0.60115177653508611 0.5252964726945264 0.2122159236616159 0.58067493397791714 -0.12524270039748508 0.14085882642317935 -0.46904109435772201 -0.58221795991549163 -0.17173406734697386 0.29910293665676452 0.014166398001553358 0.50228060896674576 -0.16219474280733948 0.43960234486233291 0.41466320165620024 -0.12433683457264494 -0.36491520694545432 0.032531592772228744 0.19253094904527976 0.2940752922793291 0.17452483233169047;-0.27633784186481297 -0.37243296648258234 -0.16116113835190773 0.35281805257154575 -0.3234176055495197 -0.23053882785118596 -0.054282766327169593 0.0094919647042518984 0.41746564194538227 -0.17098347778735659 0.37100230627814479 0.50787071522725202 0.30095122676127861 0.11421546309948086 -0.073162698632474085 -0.096377723175579355 -0.00051838090827986683 -0.03524696289402407 0.064648165051852807 -0.075154311638154739 0.04550527256519131 -0.15243355962614136 -0.17407548035954859 0.060503167815088507 -0.16483563570101492 -0.022817722191935702 0.10058416553071679 -0.21235890090763165 0.58336029058886663 -0.071351266437662847 0.13575396438864423 -0.07238662160109742 -0.22125888273890509 0.074805318699971493 -0.013020895059814436 -0.14992206235972722 -0.25101507673876322 -0.24809339567495886 0.28574126427577723 -0.058928340214284197 -0.33966283196381397 0.24541960916087055 0.0067131892958628078 0.020148622782923169 -0.37600276583472991 -0.13659124039151252 -0.17982071896663776 -0.32351993084145581 0.22742917134632815 0.12931149731663333 0.1295788098169674 -0.44068897051511546 -0.27583970567116151 -0.21969906706831047 -0.018089737326280428 -0.24265013818572392 0.11901077829472505 0.055902480574751362 -0.064726222265556438 0.14336618605171356 -0.18504982443594778 -0.17704004103959661 -0.087438394712090237 0.1162232959494514 -0.1808867830577619 -0.10458156079888169 0.1048174707516009 -0.045591584305553545 0.033893373275798604 0.15588272075089366 -0.087118772297101188 -0.11250211321528716 -0.090112475141702425 -0.22062293885334641 -0.18792293481146399 0.33194572975945286 0.34016631702785427 -0.18383995529936556 0.044805900654609168 0.22758293048595982 0.17725714481302857 -0.22219653229190717 0.21317930991835723 -0.072361621687374381 0.19348441288085003 -0.095691412966128778 -0.0018578736073058648 -0.052147464567239142 -0.37839342958224886 -0.23890109791586298 0.031340383314681253 -0.20614848703897728 -0.036306263857400295 -0.37069855253178591 -0.19405789898259207 0.09441278719270435 -0.005891480331975521 -0.12028005600430113 -0.15682581410350821;-0.11563770596591541 0.073563795916956498 0.18111277920567176 0.41366476316442119 -0.088391393451829448 -0.34431096410405393 0.28847106560273189 -0.58218474476080651 -0.13518664244221307 -0.2846016635795805 -0.05643255438460526 -0.015419338519293072 0.029472434346952153 -0.028079537396969802 -0.01465468379887791 -0.66580083212571872 -0.57196236072292084 -0.21760778384745749 0.10553381143352968 -0.11081173233145628 0.17716815311350528 0.31993788024048908 0.81868680370035951 0.28168409781894754 -0.6166853255833229 0.35867672825827535 0.015884734185092328 -0.03959083677890133 0.49530410349926429 0.20125489690677326 -0.2835636587977064 -0.063491132936824221 0.59784276134905068 0.0032808034355480895 0.13617075988338098 0.29023367305354697 0.33870928331367306 -0.054917680462567536 -0.33297148535133447 -0.16813062743653964 -0.35064794854372788 -0.14942693039502825 -0.74208229577895479 -0.12062615622528584 0.35928535797235878 0.15150928317648577 0.2903507686140912 -0.15156458919152999 0.18956301496068917 -0.11283058404376536 -0.59488332016650958 0.43030189000321584 0.19108049693370377 -0.28404968529260194 -0.41384722922825246 -0.45140595282044504 0.053506364170818312 -0.12243252510172867 -0.049233520435585501 -0.40141607627213888 0.096804614160973329 -0.57195636202910194 -0.27104480158270333 -0.27997574748264298 -0.040993902324291891 -0.47581260405153136 -0.76746937619244671 -0.3273214493370098 -0.035854148678967142 -0.51500543973293544 -0.022435591032122656 0.20009022678193406 -0.41629503201383367 -0.24472827026766941 -0.24795369030012232 -0.97499108437173754 -0.40592952455893616 -0.10765148346262948 -0.3759875351924965 -0.025643262380767758 0.28583687822935921 -0.33081798151320957 -0.13190260429938355 -0.51304858714412738 -0.71298347198266321 -0.2447710283705227 -0.095173720976384726 -0.090318500618525616 0.024162191402895189 -0.14828605232590533 -0.13818723674291414 0.46431408705584137 -0.71021669378047647 -0.33034551666366396 -0.48774694088881554 0.077602570469969726 0.5672876645742666 -0.0023508709885956061 0.29962197072674318;0.13091392874233052 0.10377187640856884 0.0010425918067095211 -0.12507887011210128 -0.3273289892581695 0.063292409485389028 -0.28946437202894698 0.22383592761277563 0.10657373195756721 -0.18170250649378911 0.10900049451921789 -0.10538371362393849 0.0054129278282855076 0.23392211772379035 0.1897586917672503 -0.1530824141418492 0.095876655888809795 -0.048362793957032621 0.31844025124990483 0.00041052481579842426 0.2465420744239683 0.35474662167092752 0.23327329946670983 -0.31189909501509855 0.37598187423628926 0.12072749540560114 0.38026174880890484 0.4311580293027592 0.22471225882508666 0.34883932531974193 0.046838153529357635 0.15411791455869486 0.67137960277694098 -0.06257974101253852 0.53097354580736211 0.55477425013911352 0.35358236931320991 0.55515018321626197 -0.078841000973016676 0.02315708974930146 -0.03179420118492602 0.091333698023864721 0.24857809381722651 -0.20770098748498603 -0.35946675031574304 -0.30406296137282168 -0.50118387041369306 -0.22771280659987322 -0.084055380159320375 -0.21686190486091936 0.14579159730888402 -0.11346902319499208 -0.52966952864800931 -0.73732302556012197 -0.78780855600923316 -0.29419306045501947 -0.16555434814369155 0.03922590723331796 0.24010437432989493 0.11904406823292955 -0.1491551787136372 -0.056898202833920913 -0.25471612843958596 0.56614923931127936 -0.17362568217964558 0.06802245438443684 0.07460839219548189 0.0019023254994072272 0.23882555030874617 0.23304877000367055 0.079715330574894799 -0.43411955905680033 0.25896086412415376 0.13620079060741139 0.15851906601754551 -0.13391509076713456 0.038590129451623864 0.10906497337106197 0.32882784944934385 0.80734457708778984 0.25512885636517907 -0.16774712964033234 0.10497054885993382 -0.12412206955438086 0.1877258121590609 0.1041028742583248 -0.15941314471735329 0.20199761288324564 0.53748226869912119 -0.36862515876935242 -0.31394326326386846 -0.48342303090002259 0.45638043132329531 -0.76803638737649449 -0.41741736039292138 -0.94172058420269744 -0.4598564446510966 -0.23024094195150843 0.38210992502693714;0.048173082459794916 0.42813376564079525 0.10692926812061751 -0.49217585078194309 -0.055032619893695969 -0.1052205014200035 0.083656099021604396 0.22379953643036518 0.44490827167056834 0.27123426226389558 0.63685432412343856 -0.11369351187578537 0.011991429642517214 -0.61590129738210941 0.1749927639040546 0.51719930517390755 0.024118141996385657 0.52859607443914292 0.67762520179017494 -0.064601675552446378 -0.16653738237557619 -0.022054660809791321 -0.21608159230708499 -0.35008053976242043 0.47881644664857281 -0.23713586575190676 -0.33369565872219131 -0.017584506454631998 -0.30033728497006074 -0.19652244920972847 -0.58012285137803676 -0.66372356387042031 -0.010284417952007505 0.051638928479952363 0.39191518684570176 0.37911849096238448 0.91016931204715679 0.16317289327263601 -0.11376484185939884 -0.038782852047992603 0.91108642278684182 1.0085464291565409 0.09466824478955696 -0.23821815912029132 -0.33604251891365861 -0.19007138694049064 -0.2006723278206716 0.46570829977909345 0.16354700104072373 0.18062615746567315 -0.74942300217299118 -0.1378318460720338 -0.055844805799847699 -0.38828560923787026 -0.35757174150531185 0.10691072710335398 -0.19590490708785624 -0.65030677454821306 -0.63858776062287992 -0.2140683631388442 0.27779144522961235 0.58044149342061635 -0.26977547807750613 0.62074641821399668 0.11629398554747745 -0.052132881468069769 0.33745780216868759 -0.90074119099279826 0.097693167259114796 0.50795028439899159 -0.2380118243439171 -0.067495156809107254 -0.25871686434074703 0.31406371286508222 0.68428608536104452 -0.48175262727957213 -0.14573604690192749 -0.52229155979544106 -1.0360946382847038 -0.56159383514444927 0.44962802755173126 0.25960723699360522 0.18426228489257737 -0.3617066899860738 0.22904916258550884 0.60264885594830586 0.030568648412274958 0.6570596213255756 0.62995618634806005 0.4841359665176807 -0.094627139086810752 -0.39114703402307183 0.23989642376822318 0.59493552254697546 0.19501265569619988 -0.32327204328476677 0.29668984681179739 0.19977732643212151 1.1008245485773587;-0.062038803262700309 0.23275340034738101 0.51941504426177276 -0.80039592004303517 -0.75027539884345251 -0.46653017237103528 0.29912892041246991 0.17541079438700638 0.19366106244025991 -0.40665200495808673 0.099322874182110166 -0.26688905314639616 0.19887473584005047 0.015505838804139558 0.35750027818418184 0.40820534098627637 -0.0063234655084128573 0.47302152236511935 -0.18314867476338004 0.090147944760440038 0.33322931598096767 0.064936902861944673 0.082145862293539054 0.012813557732917785 0.38322570169042597 -0.20262746794259912 -0.40139619042412944 0.34689381895336735 0.5341377017032588 -0.012248639619251177 0.40020508845582353 -0.64919778240879433 0.10241390856197155 -0.17717803614215979 -0.25529603216851282 -0.10610700381469376 -0.70194097308635572 -0.36466788696025676 0.17777679106884814 0.35380545906045346 0.84100085287846105 0.54720076114647143 0.20091319343892958 0.42820122932238486 0.43361019020547659 0.3025445765772109 0.64464590968634761 -0.17322275581359192 0.20698197410419028 0.096858185011070061 -0.33278422056433177 0.037537104223372988 -0.71033416154893469 0.011264225859871194 0.30713053582937933 1.1776511125212481 -0.29723408317512418 0.40336342776805023 0.28979379308744257 0.12880994773252105 0.53971808162943802 -0.20688555116066545 -0.47817222782013219 -0.25870445366213851 -0.33017506571448124 0.037584153620768071 -0.12439033041436498 0.022594423948335204 0.24546417778479709 0.2308559860607183 0.13045936721269735 -0.15801675942827581 0.12382726836407865 -0.12246189652603087 0.23863719283437615 0.59827308352880526 -0.28309850362667488 -0.14829894976762178 0.49292815547352931 -0.16517781172936383 0.75375105487101979 -0.47935662990683886 -0.24813291501531792 -0.10571190757858764 -0.01527456771983152 0.10372257007857955 -0.053062810584142917 -0.089447165897801051 -0.046587215865677468 -0.42333659682067193 0.16304434192525827 -0.18863348756570869 0.68056535087007874 0.34398880399614334 -0.48160027631017405 0.25925885973938989 0.18115715478343711 0.47515439377740387 1.2929629399867701;-0.21102365832324374 -0.531679933291617 -0.22114168318136271 0.19138681402309321 0.083447169979575853 0.61148156538944587 0.46033330588288968 0.00085657280087533816 0.71400898026633608 0.19826652438535514 0.0011777328709601242 -0.021419374596599886 -0.37059829883913553 0.42506596375677197 0.047433599378721575 0.40589912806864703 0.06159620521059439 0.43372798193473461 -0.16293963849446166 -0.29124443086583385 -0.34577150016280817 0.012844702610133804 -0.081126979422062692 0.2135410763154505 -0.092991315303121644 -0.10118134120958643 -0.12826499224916582 -0.007022394383631711 0.16322139554125215 0.29893640658001641 -0.21791852887289009 -0.31112321600715753 -0.0089025805072387929 0.33204782910922892 0.17460560249650176 0.21877778519498897 0.16887790610573111 0.17560532852972321 0.070633012712238555 0.22003238154966398 0.15901746433788325 0.29265408126043502 0.20453375622195796 0.15699665846351157 0.20264870766866577 0.27360917649737082 -0.22180667278344041 -0.19851234358478737 -0.05437722251581225 0.15063960184906322 0.19400698472202108 0.40578479128629624 -0.20116423197329109 -0.32969579322099984 -0.10458054475656045 -0.46909415193475168 0.094089281472831868 -0.23119008062443824 -0.3497740169838901 0.096437006612325793 -0.039735556855268778 0.30440452688261022 -0.0044320257713496361 -0.13983494291827209 0.17047136838005394 0.35118773083751226 -0.3768629623643911 0.14030513078257889 -0.075019013135775012 -0.55232785813734631 -0.054502832749975055 0.19222986592046565 -0.19899568906653325 0.20303806500347915 -0.30577307504705309 0.10878636101267702 -0.13753036612534322 -0.17283836654429544 0.08545116947829387 0.060955486740820866 0.21075304437502629 0.29819945029975953 0.057532988563358742 0.33198291303251826 -0.2925968983891199 -0.38152217776000885 0.11981507425229834 0.36748388365293932 0.026294768093407073 0.60977071234866909 0.24714034552686459 -0.47164745091116339 -0.11391775985030414 -0.11645443071993483 0.17004867297470094 0.61979347289421416 0.29239284506638269 -0.01198864033625982 -0.37137542525144973;-0.53140677267288294 -0.53885027760109894 -0.8389582066822765 -0.3543022102500995 -0.14431338730928039 -0.023845190390659077 0.28295240358105495 0.24611137006749909 0.22581817594318604 -0.0044261892934909786 -0.26889035431188851 -0.49233526231241603 0.25614378859696885 0.38859021293479917 -0.019545267133863335 0.50202544799107329 0.73343535051322184 -0.27778037790314408 0.11157679025857789 -0.070257582121944107 0.26903553084785103 -0.031900884044540209 0.093352159434916093 0.26648723217680104 0.2641999807390199 0.35074481736770791 0.10097288223948389 0.64890595701019782 1.1745410467204993 0.32707841054002373 0.9899122151619425 0.72945748418096523 0.082016965623058422 -0.33031168757634755 -0.38096909009933266 0.44521379222992619 -0.2371772904875519 0.28182052098917582 -0.22028360382031123 -0.22030648833406313 -0.33328376506339086 -0.044630554841434453 -0.12759754354125782 0.075364451289489931 -0.45692827760388427 -0.031061799347181403 -0.41970336265819974 0.36048373606610057 0.29334925597028949 -0.16614693851751611 0.091562842438520753 0.35645499592423902 -0.10136728095659063 0.38971089471814058 -0.039592480084926981 0.017807649531298049 0.19121031213284426 0.010340628098548056 -0.14991845318684283 -0.25631512059860562 0.32979912649643994 -0.35801223503599466 -0.01829901171000781 0.33586608746663205 -0.30433624619395827 -0.42573810385348021 -0.76318509278852442 -0.82092544761392983 -0.32710619048880918 -0.72567360343598464 -0.47157777823566299 0.031193412825027744 -0.45462920866794371 -0.29924052064139817 -0.04406488115320481 0.064407183195074713 0.52868337316197056 -0.11385934973585543 -0.074684529956701065 0.22181096019515134 -0.14551514152050946 -0.4916152772828275 -0.0093529051155174011 -0.29293234824861386 -0.5545084112816987 -0.52104701047561908 -0.25403387437014696 0.22730427907671516 0.37501024778950942 -0.085633665441927825 0.10285355158245786 -0.24658444683332773 0.22380367668322759 -0.35912960620705037 0.29890843541296697 0.2052504870034669 -0.51178361063764444 -0.094876564641174221 -0.067424445774966091;0.817913213199575 0.58994412486265491 0.093533638294288929 -0.20594731756376355 -0.12087087189996666 0.26674896830083783 -0.2787098029645006 -0.29043498060607364 0.47059536740792463 0.25053696455894442 -0.11031100598077639 -0.01017824856091365 -0.16768975371021722 -0.3556793602356651 -0.49806258522771929 -0.063382157697067051 -0.61274692489433624 -0.18853890079082181 -0.10667590008949304 -0.35977642553527772 -0.60808774270314125 0.51525154304209286 -0.3573970548942178 0.25733194568087853 0.46369713608925517 0.20751094027169364 0.26265216626748034 0.522871108032399 0.063704689432486403 -0.17618728996848501 0.25175942773367854 -0.43142461739621407 -0.39801400243955215 0.037947138653442375 -0.27241108418950966 -0.16564181845492998 -0.078101004421163078 0.12913950146935121 -0.81095308313183401 -0.32747934632058934 -0.20499002734813376 -0.49400623861082404 -0.083159620124526004 -0.32203293480902484 -0.59326052854463696 -0.20132310277032886 -0.37210250105219306 -0.45551504965116096 -0.62082647423833071 0.17273772665145384 -0.05993511871587108 0.12741148496061552 0.15438620054876359 0.48269301664854758 -0.20930711284765674 -0.1672911440543729 0.34065182757141882 0.11362620091612921 0.055469556265204278 -0.070256872848305993 0.73935076929086563 0.17659203531022277 0.41886878908257735 0.49221853649133318 0.10631144495269268 -0.0096334828134266616 0.24657770397489742 0.55523780910316833 0.32251910079060864 0.51768045454900657 -0.11674653739200809 0.41383548864759201 0.16003519588851695 -0.39245505184931689 -0.26970452150365343 -0.74806172626177403 -0.61080878728368271 0.073628104348641144 -0.068630087439326831 -0.30170315367983308 -0.2050781641692544 -0.050053948300078241 0.410236435178301 0.30341703273085313 -0.17705678875659903 -0.16359537934167617 -0.55474354644981361 -0.0086506185689185812 -0.17811947066608175 -0.24380773830116151 -0.26380027644242604 -0.041320356151754674 -0.69137984575815004 -0.51472774158774626 0.13729377265472731 -0.48125837648667702 0.13627219300984131 -0.46411395465137251 0.32668382950918035;0.0039415810635129028 -0.54532236741561924 -0.20088728491592034 -0.53152423929399539 -0.039882785311516754 -0.49675644713313011 -0.26727788904028854 -0.1687649484662882 0.10227841645491062 0.45184230500939815 0.11662214883784039 0.39645014131504075 0.3969811261502626 0.30366183574670391 -0.20166942180883662 -0.24065888311447728 -0.265750237255446 -0.57677971492214464 -0.028428052901421703 -0.11915077720000687 -0.44557127751012165 -0.14287706838967926 -0.13286360421263133 -0.055465995998607923 -0.3790683160790897 -0.60117422044321944 -0.25000486362595731 -0.23970183345661708 0.21487733293308889 0.40497647130542741 -0.01988153412558194 -0.10795140568118142 0.58568183959113995 0.29282470943817618 -0.52547853933206334 -0.16927039486104689 -0.30712832120182626 -0.32539227818162741 -0.15843793110180276 -0.16660372277244517 -0.49677543572095084 -0.16801732068693848 0.36589116249871667 -0.25056212621787821 0.17620532617694584 -0.37995095809220975 -0.29387880143027778 0.13291525536266724 0.65036921093495037 0.010705247683341645 0.015760139346423258 0.34613559053524517 0.51831310906533989 0.073959913315031114 0.82430716765019141 -0.4627933064084101 -0.4608441586377644 0.12716943202090283 0.15307289846588526 0.19546125784633406 -0.072052147412940276 -0.17975160565377582 -0.14762223721773174 -0.26758385864670453 0.40880370550471795 0.34747474907613729 -0.31301097824704083 -0.72304600062192481 -0.59393204347386008 -0.26365654820556517 0.29237274768305682 0.28678348251293989 -0.080343264363531813 0.023430401106949363 -0.06205026560007626 -0.13408249803587088 -0.26914129224213651 -0.14078620954236348 -0.040598027230345127 -0.59316517962827364 -0.019366999086853024 0.3501011944046708 -0.024449378765479989 0.18028761030937773 0.10184690149778255 0.21547457302475143 0.021478596619325229 0.20286227976204069 0.28519675337114286 0.4451677299994074 0.46995529867004421 -0.12042965450398552 -0.41882659623023044 0.05671758849970461 0.42370286626185005 0.52907287751681575 0.006463626511772104 -0.11326930329544699 -0.63987656821541983;-0.2748189177228243 0.050096330016637547 0.053818229029792788 0.062515666723774149 -0.34365209157732879 -0.044985140013131593 